<?xml version="1.0"?>
<opencv_storage>
<cascade>
  <stageType>BOOST</stageType>
  <featureType>HAAR</featureType>
  <height>24</height>
  <width>24</width>
  <stageParams>
    <boostType>GAB</boostType>
    <minHitRate>9.9900001287460327e-01</minHitRate>
    <maxFalseAlarm>1.5000000596046448e-01</maxFalseAlarm>
    <weightTrimRate>9.4999999999999996e-01</weightTrimRate>
    <maxDepth>1</maxDepth>
    <maxWeakCount>100</maxWeakCount></stageParams>
  <featureParams>
    <maxCatCount>0</maxCatCount>
    <featSize>1</featSize>
    <mode>BASIC</mode></featureParams>
  <stageNum>8</stageNum>
  <stages>
    <!-- stage 0 -->
    <_>
      <maxWeakCount>20</maxWeakCount>
      <stageThreshold>-1.3329758644104004e+00</stageThreshold>
      <weakClassifiers>
        <_>
          <internalNodes>
            0 -1 60 -1.7818415164947510e-01</internalNodes>
          <leafValues>
            6.4566928148269653e-01 -7.6206052303314209e-01</leafValues></_>
        <_>
          <internalNodes>
            0 -1 153 3.3726427704095840e-02</internalNodes>
          <leafValues>
            -4.7016721963882446e-01 6.0731834173202515e-01</leafValues></_>
        <_>
          <internalNodes>
            0 -1 41 -9.0462297201156616e-02</internalNodes>
          <leafValues>
            5.2637153863906860e-01 -3.3905205130577087e-01</leafValues></_>
        <_>
          <internalNodes>
            0 -1 211 5.3666733205318451e-02</internalNodes>
          <leafValues>
            -2.3336116969585419e-01 6.9286835193634033e-01</leafValues></_>
        <_>
          <internalNodes>
            0 -1 291 8.4385136142373085e-03</internalNodes>
          <leafValues>
            -1.8770691752433777e-01 6.2407344579696655e-01</leafValues></_>
        <_>
          <internalNodes>
            0 -1 377 8.9675756171345711e-03</internalNodes>
          <leafValues>
            -3.1704342365264893e-01 4.0876695513725281e-01</leafValues></_>
        <_>
          <internalNodes>
            0 -1 159 2.9060771688818932e-02</internalNodes>
          <leafValues>
            -2.2015750408172607e-01 5.4933655261993408e-01</leafValues></_>
        <_>
          <internalNodes>
            0 -1 242 -8.7471082806587219e-03</internalNodes>
          <leafValues>
            3.3618697524070740e-01 -3.4584572911262512e-01</leafValues></_>
        <_>
          <internalNodes>
            0 -1 52 -1.4037607237696648e-02</internalNodes>
          <leafValues>
            4.3422651290893555e-01 -2.3649077117443085e-01</leafValues></_>
        <_>
          <internalNodes>
            0 -1 44 1.3225388247519732e-03</internalNodes>
          <leafValues>
            1.4218956232070923e-01 -8.0264073610305786e-01</leafValues></_>
        <_>
          <internalNodes>
            0 -1 212 -1.5897139906883240e-02</internalNodes>
          <leafValues>
            6.2070649862289429e-01 -1.8233545124530792e-01</leafValues></_>
        <_>
          <internalNodes>
            0 -1 75 -7.7264528954401612e-04</internalNodes>
          <leafValues>
            -8.0715858936309814e-01 1.2080986052751541e-01</leafValues></_>
        <_>
          <internalNodes>
            0 -1 199 3.1700730323791504e-02</internalNodes>
          <leafValues>
            -1.8267498910427094e-01 5.1801222562789917e-01</leafValues></_>
        <_>
          <internalNodes>
            0 -1 306 1.7287332564592361e-02</internalNodes>
          <leafValues>
            -1.7400740087032318e-01 4.8183193802833557e-01</leafValues></_>
        <_>
          <internalNodes>
            0 -1 231 -2.5656303390860558e-02</internalNodes>
          <leafValues>
            6.1601477861404419e-01 -1.5294577181339264e-01</leafValues></_>
        <_>
          <internalNodes>
            0 -1 263 9.9143944680690765e-03</internalNodes>
          <leafValues>
            -2.1033568680286407e-01 4.7079065442085266e-01</leafValues></_>
        <_>
          <internalNodes>
            0 -1 381 -1.6723580192774534e-03</internalNodes>
          <leafValues>
            -8.6278712749481201e-01 1.1587262898683548e-01</leafValues></_>
        <_>
          <internalNodes>
            0 -1 292 6.2368428334593773e-03</internalNodes>
          <leafValues>
            -2.2042171657085419e-01 4.5198306441307068e-01</leafValues></_>
        <_>
          <internalNodes>
            0 -1 294 -4.8606577329337597e-03</internalNodes>
          <leafValues>
            4.7848072648048401e-01 -2.0802123844623566e-01</leafValues></_>
        <_>
          <internalNodes>
            0 -1 305 2.3150801658630371e-02</internalNodes>
          <leafValues>
            -1.4492076635360718e-01 6.0306465625762939e-01</leafValues></_></weakClassifiers></_>
    <!-- stage 1 -->
    <_>
      <maxWeakCount>32</maxWeakCount>
      <stageThreshold>-1.3828657865524292e+00</stageThreshold>
      <weakClassifiers>
        <_>
          <internalNodes>
            0 -1 178 -2.1938185393810272e-01</internalNodes>
          <leafValues>
            3.8308456540107727e-01 -7.1108442544937134e-01</leafValues></_>
        <_>
          <internalNodes>
            0 -1 77 -1.7106622457504272e-02</internalNodes>
          <leafValues>
            1.4730447530746460e-01 -5.7661515474319458e-01</leafValues></_>
        <_>
          <internalNodes>
            0 -1 18 -3.2008977141231298e-03</internalNodes>
          <leafValues>
            -6.0152000188827515e-01 1.7216870188713074e-01</leafValues></_>
        <_>
          <internalNodes>
            0 -1 5 -9.1306306421756744e-03</internalNodes>
          <leafValues>
            -8.2989168167114258e-01 1.3786868751049042e-01</leafValues></_>
        <_>
          <internalNodes>
            0 -1 405 -4.4675113167613745e-04</internalNodes>
          <leafValues>
            -8.5255259275436401e-01 7.3681980371475220e-02</leafValues></_>
        <_>
          <internalNodes>
            0 -1 9 8.2976585254073143e-03</internalNodes>
          <leafValues>
            1.4077889919281006e-01 -5.9578651189804077e-01</leafValues></_>
        <_>
          <internalNodes>
            0 -1 88 -5.6517802178859711e-02</internalNodes>
          <leafValues>
            6.5648895502090454e-01 -1.3972721993923187e-01</leafValues></_>
        <_>
          <internalNodes>
            0 -1 372 -1.0587850119918585e-03</internalNodes>
          <leafValues>
            -5.3249657154083252e-01 1.6464069485664368e-01</leafValues></_>
        <_>
          <internalNodes>
            0 -1 169 4.3020538985729218e-02</internalNodes>
          <leafValues>
            -2.2526863217353821e-01 4.0399998426437378e-01</leafValues></_>
        <_>
          <internalNodes>
            0 -1 39 1.8196289893239737e-03</internalNodes>
          <leafValues>
            1.1149294674396515e-01 -7.2866183519363403e-01</leafValues></_>
        <_>
          <internalNodes>
            0 -1 230 -6.0399170033633709e-03</internalNodes>
          <leafValues>
            5.0289469957351685e-01 -1.6281080245971680e-01</leafValues></_>
        <_>
          <internalNodes>
            0 -1 232 5.8960337191820145e-03</internalNodes>
          <leafValues>
            -2.0603466033935547e-01 4.3420976400375366e-01</leafValues></_>
        <_>
          <internalNodes>
            0 -1 261 -7.8439898788928986e-04</internalNodes>
          <leafValues>
            4.7956377267837524e-01 -1.3775877654552460e-01</leafValues></_>
        <_>
          <internalNodes>
            0 -1 149 -1.7114747315645218e-02</internalNodes>
          <leafValues>
            4.0556678175926208e-01 -1.7418122291564941e-01</leafValues></_>
        <_>
          <internalNodes>
            0 -1 76 -5.5411807261407375e-04</internalNodes>
          <leafValues>
            -5.2853137254714966e-01 1.3756471872329712e-01</leafValues></_>
        <_>
          <internalNodes>
            0 -1 4 2.5063920766115189e-03</internalNodes>
          <leafValues>
            1.1016391962766647e-01 -5.8385068178176880e-01</leafValues></_>
        <_>
          <internalNodes>
            0 -1 86 -4.1266391053795815e-03</internalNodes>
          <leafValues>
            2.4425391852855682e-01 -2.8094288706779480e-01</leafValues></_>
        <_>
          <internalNodes>
            0 -1 407 -1.3685487210750580e-02</internalNodes>
          <leafValues>
            -7.9299360513687134e-01 9.1109760105609894e-02</leafValues></_>
        <_>
          <internalNodes>
            0 -1 339 2.4488279595971107e-03</internalNodes>
          <leafValues>
            -2.0253171026706696e-01 3.8237684965133667e-01</leafValues></_>
        <_>
          <internalNodes>
            0 -1 417 -3.9474787190556526e-03</internalNodes>
          <leafValues>
            -5.6078386306762695e-01 1.2525723874568939e-01</leafValues></_>
        <_>
          <internalNodes>
            0 -1 419 -3.0086676124483347e-03</internalNodes>
          <leafValues>
            -5.5456387996673584e-01 1.2031639367341995e-01</leafValues></_>
        <_>
          <internalNodes>
            0 -1 303 2.5174440816044807e-04</internalNodes>
          <leafValues>
            -2.7224296331405640e-01 2.6332578063011169e-01</leafValues></_>
        <_>
          <internalNodes>
            0 -1 70 1.4642577152699232e-03</internalNodes>
          <leafValues>
            8.3632498979568481e-02 -7.8136146068572998e-01</leafValues></_>
        <_>
          <internalNodes>
            0 -1 310 -1.0261395946145058e-02</internalNodes>
          <leafValues>
            3.2901167869567871e-01 -2.1926419436931610e-01</leafValues></_>
        <_>
          <internalNodes>
            0 -1 342 -1.3373261317610741e-02</internalNodes>
          <leafValues>
            6.8023979663848877e-01 -1.1301498860120773e-01</leafValues></_>
        <_>
          <internalNodes>
            0 -1 413 -1.3604513369500637e-03</internalNodes>
          <leafValues>
            -5.5380207300186157e-01 1.4513270556926727e-01</leafValues></_>
        <_>
          <internalNodes>
            0 -1 12 -4.0553916245698929e-02</internalNodes>
          <leafValues>
            2.8415632247924805e-01 -2.6056635379791260e-01</leafValues></_>
        <_>
          <internalNodes>
            0 -1 278 -1.3142616953700781e-03</internalNodes>
          <leafValues>
            4.4833216071128845e-01 -1.4931170642375946e-01</leafValues></_>
        <_>
          <internalNodes>
            0 -1 151 -5.7209104299545288e-02</internalNodes>
          <leafValues>
            4.3419843912124634e-01 -1.6014228761196136e-01</leafValues></_>
        <_>
          <internalNodes>
            0 -1 11 -1.2793495319783688e-02</internalNodes>
          <leafValues>
            -5.7267582416534424e-01 1.3704404234886169e-01</leafValues></_>
        <_>
          <internalNodes>
            0 -1 368 -7.9186912626028061e-04</internalNodes>
          <leafValues>
            4.4727084040641785e-01 -1.7034821212291718e-01</leafValues></_>
        <_>
          <internalNodes>
            0 -1 16 1.1361594079062343e-03</internalNodes>
          <leafValues>
            1.1946514248847961e-01 -6.1165899038314819e-01</leafValues></_></weakClassifiers></_>
    <!-- stage 2 -->
    <_>
      <maxWeakCount>39</maxWeakCount>
      <stageThreshold>-1.4760377407073975e+00</stageThreshold>
      <weakClassifiers>
        <_>
          <internalNodes>
            0 -1 105 -1.1017344892024994e-01</internalNodes>
          <leafValues>
            1.6883116960525513e-01 -7.0433372259140015e-01</leafValues></_>
        <_>
          <internalNodes>
            0 -1 317 -1.3601191341876984e-02</internalNodes>
          <leafValues>
            6.6086918115615845e-01 -2.5681459903717041e-01</leafValues></_>
        <_>
          <internalNodes>
            0 -1 11 1.0497782379388809e-02</internalNodes>
          <leafValues>
            1.4206631481647491e-01 -6.2650376558303833e-01</leafValues></_>
        <_>
          <internalNodes>
            0 -1 221 -2.5547882542014122e-02</internalNodes>
          <leafValues>
            4.2269667983055115e-01 -1.9378353655338287e-01</leafValues></_>
        <_>
          <internalNodes>
            0 -1 170 1.5137684345245361e-01</internalNodes>
          <leafValues>
            -1.0748761892318726e-01 6.2043726444244385e-01</leafValues></_>
        <_>
          <internalNodes>
            0 -1 180 2.4241241626441479e-03</internalNodes>
          <leafValues>
            -2.5317004323005676e-01 3.1379175186157227e-01</leafValues></_>
        <_>
          <internalNodes>
            0 -1 346 -2.8692135587334633e-02</internalNodes>
          <leafValues>
            3.8922125101089478e-01 -1.8826532363891602e-01</leafValues></_>
        <_>
          <internalNodes>
            0 -1 257 -6.7435918026603758e-05</internalNodes>
          <leafValues>
            3.2867890596389771e-01 -1.9762085378170013e-01</leafValues></_>
        <_>
          <internalNodes>
            0 -1 31 1.3140346854925156e-02</internalNodes>
          <leafValues>
            5.9591412544250488e-02 -9.0061855316162109e-01</leafValues></_>
        <_>
          <internalNodes>
            0 -1 114 -1.4400098472833633e-02</internalNodes>
          <leafValues>
            7.6385056972503662e-01 -9.3456350266933441e-02</leafValues></_>
        <_>
          <internalNodes>
            0 -1 185 1.2607838958501816e-02</internalNodes>
          <leafValues>
            -1.4927129447460175e-01 4.2696934938430786e-01</leafValues></_>
        <_>
          <internalNodes>
            0 -1 118 4.4582281261682510e-03</internalNodes>
          <leafValues>
            -1.7608685791492462e-01 3.7009465694427490e-01</leafValues></_>
        <_>
          <internalNodes>
            0 -1 327 4.6841930598020554e-03</internalNodes>
          <leafValues>
            -1.4649114012718201e-01 4.4298985600471497e-01</leafValues></_>
        <_>
          <internalNodes>
            0 -1 7 3.1642336398363113e-03</internalNodes>
          <leafValues>
            9.2634588479995728e-02 -7.2782284021377563e-01</leafValues></_>
        <_>
          <internalNodes>
            0 -1 354 -9.9113918840885162e-03</internalNodes>
          <leafValues>
            5.8511161804199219e-01 -1.1677443236112595e-01</leafValues></_>
        <_>
          <internalNodes>
            0 -1 357 6.4412038773298264e-04</internalNodes>
          <leafValues>
            -2.0672845840454102e-01 2.7350053191184998e-01</leafValues></_>
        <_>
          <internalNodes>
            0 -1 59 -2.0989263057708740e-01</internalNodes>
          <leafValues>
            7.6483505964279175e-01 -7.8979790210723877e-02</leafValues></_>
        <_>
          <internalNodes>
            0 -1 25 2.0895268768072128e-02</internalNodes>
          <leafValues>
            9.0123735368251801e-02 -8.1910270452499390e-01</leafValues></_>
        <_>
          <internalNodes>
            0 -1 167 7.3696919716894627e-03</internalNodes>
          <leafValues>
            -1.6791456937789917e-01 3.7508007884025574e-01</leafValues></_>
        <_>
          <internalNodes>
            0 -1 262 -2.6747267693281174e-02</internalNodes>
          <leafValues>
            3.2250067591667175e-01 -1.8935891985893250e-01</leafValues></_>
        <_>
          <internalNodes>
            0 -1 10 -9.4835450872778893e-03</internalNodes>
          <leafValues>
            -5.5078434944152832e-01 1.1974784731864929e-01</leafValues></_>
        <_>
          <internalNodes>
            0 -1 29 3.0247613787651062e-02</internalNodes>
          <leafValues>
            -1.5613602101802826e-01 4.1625607013702393e-01</leafValues></_>
        <_>
          <internalNodes>
            0 -1 28 -2.8022989863529801e-04</internalNodes>
          <leafValues>
            2.0776087045669556e-01 -2.8822231292724609e-01</leafValues></_>
        <_>
          <internalNodes>
            0 -1 302 -1.5681910514831543e-01</internalNodes>
          <leafValues>
            8.7640041112899780e-01 -7.0661105215549469e-02</leafValues></_>
        <_>
          <internalNodes>
            0 -1 404 -3.9935106178745627e-04</internalNodes>
          <leafValues>
            -4.8724535107612610e-01 1.2849234044551849e-01</leafValues></_>
        <_>
          <internalNodes>
            0 -1 403 -5.0870970881078392e-05</internalNodes>
          <leafValues>
            2.6970595121383667e-01 -2.1326988935470581e-01</leafValues></_>
        <_>
          <internalNodes>
            0 -1 386 -5.1169749349355698e-04</internalNodes>
          <leafValues>
            -4.5212361216545105e-01 1.2750226259231567e-01</leafValues></_>
        <_>
          <internalNodes>
            0 -1 226 -1.9321039319038391e-02</internalNodes>
          <leafValues>
            7.1060186624526978e-01 -8.6934208869934082e-02</leafValues></_>
        <_>
          <internalNodes>
            0 -1 228 2.5625568814575672e-03</internalNodes>
          <leafValues>
            -1.2899813055992126e-01 4.4875243306159973e-01</leafValues></_>
        <_>
          <internalNodes>
            0 -1 304 -5.8929529041051865e-04</internalNodes>
          <leafValues>
            3.1526932120323181e-01 -1.8555738031864166e-01</leafValues></_>
        <_>
          <internalNodes>
            0 -1 320 7.4025665526278317e-05</internalNodes>
          <leafValues>
            -2.4192009866237640e-01 2.3470610380172729e-01</leafValues></_>
        <_>
          <internalNodes>
            0 -1 420 -5.3172756452113390e-04</internalNodes>
          <leafValues>
            -4.9040517210960388e-01 1.1080165952444077e-01</leafValues></_>
        <_>
          <internalNodes>
            0 -1 367 4.8210071399807930e-03</internalNodes>
          <leafValues>
            -2.0004642009735107e-01 3.2356917858123779e-01</leafValues></_>
        <_>
          <internalNodes>
            0 -1 81 -6.2886201776564121e-03</internalNodes>
          <leafValues>
            3.0834022164344788e-01 -1.9420082867145538e-01</leafValues></_>
        <_>
          <internalNodes>
            0 -1 416 5.1437527872622013e-05</internalNodes>
          <leafValues>
            -2.2263239324092865e-01 2.5032261013984680e-01</leafValues></_>
        <_>
          <internalNodes>
            0 -1 416 9.0838957112282515e-04</internalNodes>
          <leafValues>
            9.9457748234272003e-02 -6.5917265415191650e-01</leafValues></_>
        <_>
          <internalNodes>
            0 -1 264 1.8586538732051849e-02</internalNodes>
          <leafValues>
            -1.7068964242935181e-01 3.5151541233062744e-01</leafValues></_>
        <_>
          <internalNodes>
            0 -1 62 2.7193665504455566e-01</internalNodes>
          <leafValues>
            7.1206480264663696e-02 -8.3183711767196655e-01</leafValues></_>
        <_>
          <internalNodes>
            0 -1 215 5.6931036524474621e-03</internalNodes>
          <leafValues>
            -1.9822157919406891e-01 3.0170989036560059e-01</leafValues></_></weakClassifiers></_>
    <!-- stage 3 -->
    <_>
      <maxWeakCount>53</maxWeakCount>
      <stageThreshold>-1.2832618951797485e+00</stageThreshold>
      <weakClassifiers>
        <_>
          <internalNodes>
            0 -1 251 -3.4523665904998779e-01</internalNodes>
          <leafValues>
            8.6021505296230316e-02 -6.8257755041122437e-01</leafValues></_>
        <_>
          <internalNodes>
            0 -1 23 -3.6853939294815063e-01</internalNodes>
          <leafValues>
            4.5807835459709167e-01 -2.7176016569137573e-01</leafValues></_>
        <_>
          <internalNodes>
            0 -1 119 -3.6799599183723330e-04</internalNodes>
          <leafValues>
            -6.9207793474197388e-01 1.2330713868141174e-01</leafValues></_>
        <_>
          <internalNodes>
            0 -1 298 3.3983651082962751e-03</internalNodes>
          <leafValues>
            9.0909212827682495e-02 -6.4067012071609497e-01</leafValues></_>
        <_>
          <internalNodes>
            0 -1 415 -3.2803509384393692e-04</internalNodes>
          <leafValues>
            -6.2414336204528809e-01 1.0304236412048340e-01</leafValues></_>
        <_>
          <internalNodes>
            0 -1 351 3.1114616431295872e-03</internalNodes>
          <leafValues>
            9.8501808941364288e-02 -5.6981158256530762e-01</leafValues></_>
        <_>
          <internalNodes>
            0 -1 370 -2.2276020608842373e-03</internalNodes>
          <leafValues>
            -5.7169139385223389e-01 9.8194181919097900e-02</leafValues></_>
        <_>
          <internalNodes>
            0 -1 165 -1.2920829653739929e-01</internalNodes>
          <leafValues>
            -6.3437592983245850e-01 7.6343238353729248e-02</leafValues></_>
        <_>
          <internalNodes>
            0 -1 166 2.0827177911996841e-02</internalNodes>
          <leafValues>
            -1.9264079630374908e-01 3.0501931905746460e-01</leafValues></_>
        <_>
          <internalNodes>
            0 -1 94 4.5116926776245236e-04</internalNodes>
          <leafValues>
            1.0756874829530716e-01 -5.2876394987106323e-01</leafValues></_>
        <_>
          <internalNodes>
            0 -1 219 -2.2943649441003799e-02</internalNodes>
          <leafValues>
            2.3008431494235992e-01 -2.1090351045131683e-01</leafValues></_>
        <_>
          <internalNodes>
            0 -1 119 -5.3453455620910972e-05</internalNodes>
          <leafValues>
            3.2252663373947144e-01 -1.5742112696170807e-01</leafValues></_>
        <_>
          <internalNodes>
            0 -1 30 -1.8168725073337555e-02</internalNodes>
          <leafValues>
            -8.1306761503219604e-01 5.7192623615264893e-02</leafValues></_>
        <_>
          <internalNodes>
            0 -1 98 -1.7414581961929798e-03</internalNodes>
          <leafValues>
            2.4689076840877533e-01 -1.9966283440589905e-01</leafValues></_>
        <_>
          <internalNodes>
            0 -1 380 2.1887319162487984e-03</internalNodes>
          <leafValues>
            1.1614141613245010e-01 -4.2306759953498840e-01</leafValues></_>
        <_>
          <internalNodes>
            0 -1 58 -1.7062865663319826e-03</internalNodes>
          <leafValues>
            -5.2305924892425537e-01 8.7424844503402710e-02</leafValues></_>
        <_>
          <internalNodes>
            0 -1 313 8.6814984679222107e-03</internalNodes>
          <leafValues>
            -1.0108708590269089e-01 4.8745068907737732e-01</leafValues></_>
        <_>
          <internalNodes>
            0 -1 1 2.3612515069544315e-03</internalNodes>
          <leafValues>
            5.5101383477449417e-02 -8.8518279790878296e-01</leafValues></_>
        <_>
          <internalNodes>
            0 -1 126 -4.4203802943229675e-02</internalNodes>
          <leafValues>
            2.7445861697196960e-01 -1.6865268349647522e-01</leafValues></_>
        <_>
          <internalNodes>
            0 -1 65 1.0486801620572805e-03</internalNodes>
          <leafValues>
            5.5971685796976089e-02 -8.2762736082077026e-01</leafValues></_>
        <_>
          <internalNodes>
            0 -1 220 -1.0833309497684240e-03</internalNodes>
          <leafValues>
            2.5212466716766357e-01 -1.7892523109912872e-01</leafValues></_>
        <_>
          <internalNodes>
            0 -1 92 -1.4361196197569370e-02</internalNodes>
          <leafValues>
            5.9284675121307373e-01 -7.4228800833225250e-02</leafValues></_>
        <_>
          <internalNodes>
            0 -1 273 5.3263604640960693e-02</internalNodes>
          <leafValues>
            4.9543716013431549e-02 -8.5764509439468384e-01</leafValues></_>
        <_>
          <internalNodes>
            0 -1 371 5.7443794503342360e-05</internalNodes>
          <leafValues>
            -1.6712847352027893e-01 2.3489244282245636e-01</leafValues></_>
        <_>
          <internalNodes>
            0 -1 248 -6.6680670715868473e-04</internalNodes>
          <leafValues>
            3.0689689517021179e-01 -1.2283522635698318e-01</leafValues></_>
        <_>
          <internalNodes>
            0 -1 207 3.4293048083782196e-02</internalNodes>
          <leafValues>
            -1.1260557174682617e-01 3.7824875116348267e-01</leafValues></_>
        <_>
          <internalNodes>
            0 -1 224 -1.7270042002201080e-01</internalNodes>
          <leafValues>
            4.6852660179138184e-01 -9.2793859541416168e-02</leafValues></_>
        <_>
          <internalNodes>
            0 -1 393 2.4619139730930328e-04</internalNodes>
          <leafValues>
            -2.6533445715904236e-01 2.0311011373996735e-01</leafValues></_>
        <_>
          <internalNodes>
            0 -1 57 5.0801719771698117e-04</internalNodes>
          <leafValues>
            7.4754394590854645e-02 -5.4163283109664917e-01</leafValues></_>
        <_>
          <internalNodes>
            0 -1 255 2.4972954997792840e-04</internalNodes>
          <leafValues>
            -1.9723352789878845e-01 2.0587921142578125e-01</leafValues></_>
        <_>
          <internalNodes>
            0 -1 144 6.3954040408134460e-02</internalNodes>
          <leafValues>
            5.6128058582544327e-02 -7.1501982212066650e-01</leafValues></_>
        <_>
          <internalNodes>
            0 -1 203 7.2731939144432545e-03</internalNodes>
          <leafValues>
            -1.6852077841758728e-01 3.2882776856422424e-01</leafValues></_>
        <_>
          <internalNodes>
            0 -1 331 1.7514102160930634e-02</internalNodes>
          <leafValues>
            -1.9355657696723938e-01 2.1973370015621185e-01</leafValues></_>
        <_>
          <internalNodes>
            0 -1 0 -1.0750012006610632e-03</internalNodes>
          <leafValues>
            -5.8012926578521729e-01 6.6683195531368256e-02</leafValues></_>
        <_>
          <internalNodes>
            0 -1 209 -2.2600495722144842e-03</internalNodes>
          <leafValues>
            3.1437259912490845e-01 -1.3520580530166626e-01</leafValues></_>
        <_>
          <internalNodes>
            0 -1 295 7.6256962493062019e-03</internalNodes>
          <leafValues>
            -8.7765984237194061e-02 4.6353062987327576e-01</leafValues></_>
        <_>
          <internalNodes>
            0 -1 14 5.3454027511179447e-04</internalNodes>
          <leafValues>
            6.8479716777801514e-02 -6.5012973546981812e-01</leafValues></_>
        <_>
          <internalNodes>
            0 -1 205 1.7727943137288094e-02</internalNodes>
          <leafValues>
            -1.4502243697643280e-01 3.4791335463523865e-01</leafValues></_>
        <_>
          <internalNodes>
            0 -1 340 -7.8314007259905338e-04</internalNodes>
          <leafValues>
            2.0933002233505249e-01 -1.9336248934268951e-01</leafValues></_>
        <_>
          <internalNodes>
            0 -1 338 -4.6775069087743759e-02</internalNodes>
          <leafValues>
            4.1633656620979309e-01 -1.1695412546396255e-01</leafValues></_>
        <_>
          <internalNodes>
            0 -1 236 -6.6558071412146091e-03</internalNodes>
          <leafValues>
            3.2522219419479370e-01 -1.2800227105617523e-01</leafValues></_>
        <_>
          <internalNodes>
            0 -1 323 -5.5420114658772945e-03</internalNodes>
          <leafValues>
            3.6379507184028625e-01 -1.1162193119525909e-01</leafValues></_>
        <_>
          <internalNodes>
            0 -1 107 -4.9837511032819748e-02</internalNodes>
          <leafValues>
            4.7635263204574585e-01 -9.2044427990913391e-02</leafValues></_>
        <_>
          <internalNodes>
            0 -1 309 1.2175453826785088e-02</internalNodes>
          <leafValues>
            -1.1165343970060349e-01 3.5747206211090088e-01</leafValues></_>
        <_>
          <internalNodes>
            0 -1 95 6.6821821033954620e-02</internalNodes>
          <leafValues>
            -1.4640066027641296e-01 2.9702693223953247e-01</leafValues></_>
        <_>
          <internalNodes>
            0 -1 227 4.6152539551258087e-02</internalNodes>
          <leafValues>
            -1.0661369562149048e-01 3.8982492685317993e-01</leafValues></_>
        <_>
          <internalNodes>
            0 -1 343 6.9473842158913612e-03</internalNodes>
          <leafValues>
            -1.1724551767110825e-01 3.5499906539916992e-01</leafValues></_>
        <_>
          <internalNodes>
            0 -1 284 5.5510350503027439e-03</internalNodes>
          <leafValues>
            4.8642367124557495e-02 -9.0492981672286987e-01</leafValues></_>
        <_>
          <internalNodes>
            0 -1 283 3.9767898852005601e-04</internalNodes>
          <leafValues>
            1.2221761047840118e-01 -3.1374543905258179e-01</leafValues></_>
        <_>
          <internalNodes>
            0 -1 400 5.3523661335930228e-05</internalNodes>
          <leafValues>
            -1.7152546346187592e-01 2.2005616128444672e-01</leafValues></_>
        <_>
          <internalNodes>
            0 -1 349 -4.4319254811853170e-04</internalNodes>
          <leafValues>
            -5.4347157478332520e-01 7.0899650454521179e-02</leafValues></_>
        <_>
          <internalNodes>
            0 -1 206 1.0635033249855042e-03</internalNodes>
          <leafValues>
            -1.8164493143558502e-01 2.2800284624099731e-01</leafValues></_>
        <_>
          <internalNodes>
            0 -1 328 2.8156681219115853e-04</internalNodes>
          <leafValues>
            -1.9550834596157074e-01 1.9776841998100281e-01</leafValues></_></weakClassifiers></_>
    <!-- stage 4 -->
    <_>
      <maxWeakCount>57</maxWeakCount>
      <stageThreshold>-1.2676157951354980e+00</stageThreshold>
      <weakClassifiers>
        <_>
          <internalNodes>
            0 -1 80 -3.3725762367248535e-01</internalNodes>
          <leafValues>
            3.4513273835182190e-01 -6.7220717668533325e-01</leafValues></_>
        <_>
          <internalNodes>
            0 -1 48 -6.8537585437297821e-02</internalNodes>
          <leafValues>
            3.1575801968574524e-01 -3.6081990599632263e-01</leafValues></_>
        <_>
          <internalNodes>
            0 -1 154 3.8695346564054489e-02</internalNodes>
          <leafValues>
            -1.7372728884220123e-01 3.4085544943809509e-01</leafValues></_>
        <_>
          <internalNodes>
            0 -1 177 -8.0995708703994751e-03</internalNodes>
          <leafValues>
            3.3159694075584412e-01 -1.4682242274284363e-01</leafValues></_>
        <_>
          <internalNodes>
            0 -1 38 -8.2451384514570236e-03</internalNodes>
          <leafValues>
            -9.6247416734695435e-01 5.5261909961700439e-02</leafValues></_>
        <_>
          <internalNodes>
            0 -1 74 -6.3273706473410130e-04</internalNodes>
          <leafValues>
            -4.7386169433593750e-01 9.6083864569664001e-02</leafValues></_>
        <_>
          <internalNodes>
            0 -1 162 -7.9775061458349228e-03</internalNodes>
          <leafValues>
            4.2069938778877258e-01 -9.7555786371231079e-02</leafValues></_>
        <_>
          <internalNodes>
            0 -1 409 -1.9875739235430956e-03</internalNodes>
          <leafValues>
            -6.6533541679382324e-01 6.5415225923061371e-02</leafValues></_>
        <_>
          <internalNodes>
            0 -1 40 -2.0790032576769590e-03</internalNodes>
          <leafValues>
            1.5128436684608459e-01 -2.7739113569259644e-01</leafValues></_>
        <_>
          <internalNodes>
            0 -1 45 2.1879808045923710e-03</internalNodes>
          <leafValues>
            6.8938486278057098e-02 -6.0544544458389282e-01</leafValues></_>
        <_>
          <internalNodes>
            0 -1 152 6.7706080153584480e-03</internalNodes>
          <leafValues>
            -1.6115275025367737e-01 3.0734127759933472e-01</leafValues></_>
        <_>
          <internalNodes>
            0 -1 383 1.3790727825835347e-03</internalNodes>
          <leafValues>
            -1.9797900319099426e-01 2.1963281929492950e-01</leafValues></_>
        <_>
          <internalNodes>
            0 -1 378 -3.4760802984237671e-02</internalNodes>
          <leafValues>
            4.8944675922393799e-01 -1.1507453769445419e-01</leafValues></_>
        <_>
          <internalNodes>
            0 -1 186 1.6619598027318716e-03</internalNodes>
          <leafValues>
            -1.6227607429027557e-01 2.7081483602523804e-01</leafValues></_>
        <_>
          <internalNodes>
            0 -1 421 -1.7644218169152737e-03</internalNodes>
          <leafValues>
            -4.8255988955497742e-01 8.6475528776645660e-02</leafValues></_>
        <_>
          <internalNodes>
            0 -1 102 1.2045137118548155e-03</internalNodes>
          <leafValues>
            -2.0310474932193756e-01 2.1158215403556824e-01</leafValues></_>
        <_>
          <internalNodes>
            0 -1 15 -5.8495090343058109e-04</internalNodes>
          <leafValues>
            -5.3811192512512207e-01 8.3765327930450439e-02</leafValues></_>
        <_>
          <internalNodes>
            0 -1 225 -2.9179785400629044e-02</internalNodes>
          <leafValues>
            7.3630481958389282e-01 -6.0737036168575287e-02</leafValues></_>
        <_>
          <internalNodes>
            0 -1 69 -4.9586337991058826e-04</internalNodes>
          <leafValues>
            -2.4367095530033112e-01 1.5527895092964172e-01</leafValues></_>
        <_>
          <internalNodes>
            0 -1 112 -1.2833438813686371e-02</internalNodes>
          <leafValues>
            3.2148334383964539e-01 -1.3049575686454773e-01</leafValues></_>
        <_>
          <internalNodes>
            0 -1 133 -4.3484196066856384e-02</internalNodes>
          <leafValues>
            4.3301168084144592e-01 -1.0223197191953659e-01</leafValues></_>
        <_>
          <internalNodes>
            0 -1 140 7.2169108316302299e-03</internalNodes>
          <leafValues>
            -1.3794213533401489e-01 3.1492492556571960e-01</leafValues></_>
        <_>
          <internalNodes>
            0 -1 188 -5.9296929975971580e-05</internalNodes>
          <leafValues>
            2.1267011761665344e-01 -1.7872902750968933e-01</leafValues></_>
        <_>
          <internalNodes>
            0 -1 297 1.2600546469911933e-03</internalNodes>
          <leafValues>
            -1.5308579802513123e-01 2.4965196847915649e-01</leafValues></_>
        <_>
          <internalNodes>
            0 -1 326 5.5528702214360237e-03</internalNodes>
          <leafValues>
            -1.0612088441848755e-01 4.0266230702400208e-01</leafValues></_>
        <_>
          <internalNodes>
            0 -1 369 -6.3140928978100419e-04</internalNodes>
          <leafValues>
            -4.8800858855247498e-01 8.6343653500080109e-02</leafValues></_>
        <_>
          <internalNodes>
            0 -1 213 5.5416626855731010e-03</internalNodes>
          <leafValues>
            -8.4961958229541779e-02 4.5624884963035583e-01</leafValues></_>
        <_>
          <internalNodes>
            0 -1 99 -9.1147050261497498e-03</internalNodes>
          <leafValues>
            2.8694981336593628e-01 -1.2381675839424133e-01</leafValues></_>
        <_>
          <internalNodes>
            0 -1 223 1.9268857315182686e-02</internalNodes>
          <leafValues>
            -1.8627144396305084e-01 2.1712660789489746e-01</leafValues></_>
        <_>
          <internalNodes>
            0 -1 376 4.8574609681963921e-03</internalNodes>
          <leafValues>
            -1.3204750418663025e-01 2.6928213238716125e-01</leafValues></_>
        <_>
          <internalNodes>
            0 -1 314 2.4957582354545593e-02</internalNodes>
          <leafValues>
            -1.2248641252517700e-01 3.2877349853515625e-01</leafValues></_>
        <_>
          <internalNodes>
            0 -1 84 -1.7893379926681519e-01</internalNodes>
          <leafValues>
            8.3900505304336548e-01 -4.6931859105825424e-02</leafValues></_>
        <_>
          <internalNodes>
            0 -1 240 -3.3446571324020624e-03</internalNodes>
          <leafValues>
            2.0585176348686218e-01 -2.2157526016235352e-01</leafValues></_>
        <_>
          <internalNodes>
            0 -1 238 9.7476213704794645e-04</internalNodes>
          <leafValues>
            1.0620726644992828e-01 -3.4992402791976929e-01</leafValues></_>
        <_>
          <internalNodes>
            0 -1 414 -5.9468863764777780e-04</internalNodes>
          <leafValues>
            -4.3838265538215637e-01 7.7105097472667694e-02</leafValues></_>
        <_>
          <internalNodes>
            0 -1 51 9.3824537470936775e-03</internalNodes>
          <leafValues>
            4.2357929050922394e-02 -7.5923359394073486e-01</leafValues></_>
        <_>
          <internalNodes>
            0 -1 316 -2.7291858568787575e-03</internalNodes>
          <leafValues>
            3.0665394663810730e-01 -1.2805783748626709e-01</leafValues></_>
        <_>
          <internalNodes>
            0 -1 127 -5.8583602309226990e-02</internalNodes>
          <leafValues>
            2.5926625728607178e-01 -1.5944713354110718e-01</leafValues></_>
        <_>
          <internalNodes>
            0 -1 55 6.9264704361557961e-03</internalNodes>
          <leafValues>
            -1.8630912899971008e-01 2.2260047495365143e-01</leafValues></_>
        <_>
          <internalNodes>
            0 -1 353 1.2542994227260351e-04</internalNodes>
          <leafValues>
            -1.6710643470287323e-01 2.3114468157291412e-01</leafValues></_>
        <_>
          <internalNodes>
            0 -1 352 -9.3395281583070755e-03</internalNodes>
          <leafValues>
            2.3269653320312500e-01 -1.7193812131881714e-01</leafValues></_>
        <_>
          <internalNodes>
            0 -1 202 1.5301232039928436e-01</internalNodes>
          <leafValues>
            -9.7040936350822449e-02 4.6705266833305359e-01</leafValues></_>
        <_>
          <internalNodes>
            0 -1 132 -6.7615211009979248e-02</internalNodes>
          <leafValues>
            2.8610935807228088e-01 -1.3646785914897919e-01</leafValues></_>
        <_>
          <internalNodes>
            0 -1 90 5.7890303432941437e-03</internalNodes>
          <leafValues>
            -1.3694079220294952e-01 2.8039237856864929e-01</leafValues></_>
        <_>
          <internalNodes>
            0 -1 53 -1.6385775059461594e-02</internalNodes>
          <leafValues>
            2.9115867614746094e-01 -1.1896260827779770e-01</leafValues></_>
        <_>
          <internalNodes>
            0 -1 312 5.9377696743467823e-05</internalNodes>
          <leafValues>
            -1.7186197638511658e-01 2.1821039915084839e-01</leafValues></_>
        <_>
          <internalNodes>
            0 -1 410 -1.1700956150889397e-02</internalNodes>
          <leafValues>
            -8.3845388889312744e-01 4.0598832070827484e-02</leafValues></_>
        <_>
          <internalNodes>
            0 -1 191 6.1254133470356464e-05</internalNodes>
          <leafValues>
            -1.8951082229614258e-01 1.8296016752719879e-01</leafValues></_>
        <_>
          <internalNodes>
            0 -1 43 6.0839597135782242e-03</internalNodes>
          <leafValues>
            -1.2930752336978912e-01 2.6641657948493958e-01</leafValues></_>
        <_>
          <internalNodes>
            0 -1 64 -1.0594371706247330e-03</internalNodes>
          <leafValues>
            -4.0132772922515869e-01 8.2731790840625763e-02</leafValues></_>
        <_>
          <internalNodes>
            0 -1 379 1.4157002791762352e-02</internalNodes>
          <leafValues>
            -9.0345352888107300e-02 3.9942184090614319e-01</leafValues></_>
        <_>
          <internalNodes>
            0 -1 395 -7.8891956945881248e-04</internalNodes>
          <leafValues>
            -4.9870026111602783e-01 7.8497134149074554e-02</leafValues></_>
        <_>
          <internalNodes>
            0 -1 117 -5.4553933296119794e-05</internalNodes>
          <leafValues>
            2.2940427064895630e-01 -1.5393267571926117e-01</leafValues></_>
        <_>
          <internalNodes>
            0 -1 142 3.9734831079840660e-03</internalNodes>
          <leafValues>
            -1.5102681517601013e-01 2.3397110402584076e-01</leafValues></_>
        <_>
          <internalNodes>
            0 -1 157 1.3405676931142807e-02</internalNodes>
          <leafValues>
            -6.5005689859390259e-02 6.0136717557907104e-01</leafValues></_>
        <_>
          <internalNodes>
            0 -1 32 -8.9939013123512268e-03</internalNodes>
          <leafValues>
            -6.4165496826171875e-01 6.0662046074867249e-02</leafValues></_>
        <_>
          <internalNodes>
            0 -1 129 -1.0495103150606155e-01</internalNodes>
          <leafValues>
            3.3704721927642822e-01 -1.1466227471828461e-01</leafValues></_></weakClassifiers></_>
    <!-- stage 5 -->
    <_>
      <maxWeakCount>72</maxWeakCount>
      <stageThreshold>-1.1414080858230591e+00</stageThreshold>
      <weakClassifiers>
        <_>
          <internalNodes>
            0 -1 315 4.3154057115316391e-02</internalNodes>
          <leafValues>
            -6.6850394010543823e-01 -1.2500000186264515e-02</leafValues></_>
        <_>
          <internalNodes>
            0 -1 13 -1.4900696463882923e-02</internalNodes>
          <leafValues>
            5.0627298653125763e-02 -4.0029236674308777e-01</leafValues></_>
        <_>
          <internalNodes>
            0 -1 182 2.0790930837392807e-02</internalNodes>
          <leafValues>
            5.0718829035758972e-02 -7.7852982282638550e-01</leafValues></_>
        <_>
          <internalNodes>
            0 -1 168 3.6964577157050371e-04</internalNodes>
          <leafValues>
            9.7444057464599609e-02 -4.4659996032714844e-01</leafValues></_>
        <_>
          <internalNodes>
            0 -1 19 -4.1488942224532366e-04</internalNodes>
          <leafValues>
            1.9524370133876801e-01 -2.1757711470127106e-01</leafValues></_>
        <_>
          <internalNodes>
            0 -1 389 -3.6753926542587578e-04</internalNodes>
          <leafValues>
            -5.2905404567718506e-01 6.3215501606464386e-02</leafValues></_>
        <_>
          <internalNodes>
            0 -1 204 1.5857433900237083e-03</internalNodes>
          <leafValues>
            -1.1075196415185928e-01 3.3187329769134521e-01</leafValues></_>
        <_>
          <internalNodes>
            0 -1 364 1.4774426817893982e-02</internalNodes>
          <leafValues>
            -1.6255508363246918e-01 2.3770090937614441e-01</leafValues></_>
        <_>
          <internalNodes>
            0 -1 418 1.5257882885634899e-02</internalNodes>
          <leafValues>
            4.9029726535081863e-02 -7.9073852300643921e-01</leafValues></_>
        <_>
          <internalNodes>
            0 -1 332 -3.6927349865436554e-02</internalNodes>
          <leafValues>
            2.1269120275974274e-01 -1.7777538299560547e-01</leafValues></_>
        <_>
          <internalNodes>
            0 -1 144 5.3871773183345795e-02</internalNodes>
          <leafValues>
            5.9366039931774139e-02 -5.9150052070617676e-01</leafValues></_>
        <_>
          <internalNodes>
            0 -1 173 1.3354620337486267e-01</internalNodes>
          <leafValues>
            -1.1938352137804031e-01 3.8404816389083862e-01</leafValues></_>
        <_>
          <internalNodes>
            0 -1 189 1.2611288577318192e-02</internalNodes>
          <leafValues>
            -1.4406576752662659e-01 2.5016644597053528e-01</leafValues></_>
        <_>
          <internalNodes>
            0 -1 347 -8.7223004084080458e-04</internalNodes>
          <leafValues>
            3.2208150625228882e-01 -1.1971171945333481e-01</leafValues></_>
        <_>
          <internalNodes>
            0 -1 268 2.4638764560222626e-02</internalNodes>
          <leafValues>
            7.7552467584609985e-02 -4.3011662364006042e-01</leafValues></_>
        <_>
          <internalNodes>
            0 -1 388 1.3003398198634386e-03</internalNodes>
          <leafValues>
            -2.5575008988380432e-01 1.2925504148006439e-01</leafValues></_>
        <_>
          <internalNodes>
            0 -1 17 -6.3071072101593018e-02</internalNodes>
          <leafValues>
            -6.2332171201705933e-01 5.2357185631990433e-02</leafValues></_>
        <_>
          <internalNodes>
            0 -1 172 -3.9083594456315041e-03</internalNodes>
          <leafValues>
            2.7133360505104065e-01 -1.6709248721599579e-01</leafValues></_>
        <_>
          <internalNodes>
            0 -1 145 4.5961625874042511e-03</internalNodes>
          <leafValues>
            -1.3936498761177063e-01 2.3903062939643860e-01</leafValues></_>
        <_>
          <internalNodes>
            0 -1 3 -8.5767434211447835e-04</internalNodes>
          <leafValues>
            -4.3820655345916748e-01 8.2924105226993561e-02</leafValues></_>
        <_>
          <internalNodes>
            0 -1 281 1.7425103578716516e-03</internalNodes>
          <leafValues>
            -1.5428030490875244e-01 2.2849962115287781e-01</leafValues></_>
        <_>
          <internalNodes>
            0 -1 161 -9.6335280686616898e-03</internalNodes>
          <leafValues>
            4.6658492088317871e-01 -8.1020325422286987e-02</leafValues></_>
        <_>
          <internalNodes>
            0 -1 158 -8.4944203495979309e-02</internalNodes>
          <leafValues>
            3.7789145112037659e-01 -8.6066417396068573e-02</leafValues></_>
        <_>
          <internalNodes>
            0 -1 333 2.8938248753547668e-02</internalNodes>
          <leafValues>
            -1.2124849110841751e-01 3.0234852433204651e-01</leafValues></_>
        <_>
          <internalNodes>
            0 -1 252 5.7668540626764297e-02</internalNodes>
          <leafValues>
            7.9413518309593201e-02 -5.2160590887069702e-01</leafValues></_>
        <_>
          <internalNodes>
            0 -1 300 5.5188421159982681e-02</internalNodes>
          <leafValues>
            4.5132406055927277e-02 -6.3849490880966187e-01</leafValues></_>
        <_>
          <internalNodes>
            0 -1 359 4.9324687570333481e-03</internalNodes>
          <leafValues>
            -1.1266707628965378e-01 3.0472999811172485e-01</leafValues></_>
        <_>
          <internalNodes>
            0 -1 385 -6.9173076190054417e-04</internalNodes>
          <leafValues>
            -3.8998416066169739e-01 9.7949653863906860e-02</leafValues></_>
        <_>
          <internalNodes>
            0 -1 171 2.4891763925552368e-01</internalNodes>
          <leafValues>
            3.0455615371465683e-02 -8.6000895500183105e-01</leafValues></_>
        <_>
          <internalNodes>
            0 -1 198 -1.5613085031509399e-01</internalNodes>
          <leafValues>
            -6.3571572303771973e-01 4.1302647441625595e-02</leafValues></_>
        <_>
          <internalNodes>
            0 -1 392 -1.1016950011253357e-02</internalNodes>
          <leafValues>
            -8.1064212322235107e-01 3.2653674483299255e-02</leafValues></_>
        <_>
          <internalNodes>
            0 -1 290 6.3707999885082245e-02</internalNodes>
          <leafValues>
            -1.2489210814237595e-01 3.0131405591964722e-01</leafValues></_>
        <_>
          <internalNodes>
            0 -1 164 5.3699307143688202e-02</internalNodes>
          <leafValues>
            -7.5961008667945862e-02 3.9770290255546570e-01</leafValues></_>
        <_>
          <internalNodes>
            0 -1 137 2.0799032427021302e-05</internalNodes>
          <leafValues>
            -1.9079922139644623e-01 1.7629019916057587e-01</leafValues></_>
        <_>
          <internalNodes>
            0 -1 54 1.2963924556970596e-02</internalNodes>
          <leafValues>
            -1.5873181819915771e-01 2.0710973441600800e-01</leafValues></_>
        <_>
          <internalNodes>
            0 -1 35 4.5652467757463455e-02</internalNodes>
          <leafValues>
            4.9807567149400711e-02 -6.8268650770187378e-01</leafValues></_>
        <_>
          <internalNodes>
            0 -1 217 -3.8047344423830509e-03</internalNodes>
          <leafValues>
            2.8234574198722839e-01 -1.1666802316904068e-01</leafValues></_>
        <_>
          <internalNodes>
            0 -1 311 -1.2630068231374025e-03</internalNodes>
          <leafValues>
            2.4451704323291779e-01 -1.3585388660430908e-01</leafValues></_>
        <_>
          <internalNodes>
            0 -1 308 3.1055619474500418e-03</internalNodes>
          <leafValues>
            -7.8690364956855774e-02 4.0460678935050964e-01</leafValues></_>
        <_>
          <internalNodes>
            0 -1 250 6.6997762769460678e-04</internalNodes>
          <leafValues>
            6.1798173934221268e-02 -5.4527848958969116e-01</leafValues></_>
        <_>
          <internalNodes>
            0 -1 150 -8.1296190619468689e-02</internalNodes>
          <leafValues>
            3.1547439098358154e-01 -1.0642930865287781e-01</leafValues></_>
        <_>
          <internalNodes>
            0 -1 125 2.0076202228665352e-02</internalNodes>
          <leafValues>
            -1.5154062211513519e-01 2.9149621725082397e-01</leafValues></_>
        <_>
          <internalNodes>
            0 -1 239 -3.4037861041724682e-03</internalNodes>
          <leafValues>
            -6.5679454803466797e-01 5.9226159006357193e-02</leafValues></_>
        <_>
          <internalNodes>
            0 -1 200 -2.7423197031021118e-01</internalNodes>
          <leafValues>
            4.7257131338119507e-01 -8.1937439739704132e-02</leafValues></_>
        <_>
          <internalNodes>
            0 -1 235 5.6454464793205261e-03</internalNodes>
          <leafValues>
            -1.4126482605934143e-01 2.3913720250129700e-01</leafValues></_>
        <_>
          <internalNodes>
            0 -1 193 -9.2360749840736389e-04</internalNodes>
          <leafValues>
            1.8394234776496887e-01 -1.7337429523468018e-01</leafValues></_>
        <_>
          <internalNodes>
            0 -1 2 -2.6674470864236355e-03</internalNodes>
          <leafValues>
            1.9020827114582062e-01 -1.6921165585517883e-01</leafValues></_>
        <_>
          <internalNodes>
            0 -1 369 7.1814691182225943e-04</internalNodes>
          <leafValues>
            8.2005515694618225e-02 -4.2264875769615173e-01</leafValues></_>
        <_>
          <internalNodes>
            0 -1 412 -1.1103474535048008e-03</internalNodes>
          <leafValues>
            -7.7945715188980103e-01 3.8253653794527054e-02</leafValues></_>
        <_>
          <internalNodes>
            0 -1 208 -7.2165729943662882e-04</internalNodes>
          <leafValues>
            3.1170213222503662e-01 -1.0818032920360565e-01</leafValues></_>
        <_>
          <internalNodes>
            0 -1 336 -2.9341899789869785e-04</internalNodes>
          <leafValues>
            2.3139891028404236e-01 -1.3141074776649475e-01</leafValues></_>
        <_>
          <internalNodes>
            0 -1 253 7.5467349961400032e-04</internalNodes>
          <leafValues>
            -1.2348522245883942e-01 2.6488861441612244e-01</leafValues></_>
        <_>
          <internalNodes>
            0 -1 115 -7.3702336521819234e-04</internalNodes>
          <leafValues>
            1.7956934869289398e-01 -1.7136205732822418e-01</leafValues></_>
        <_>
          <internalNodes>
            0 -1 325 -3.8859255611896515e-02</internalNodes>
          <leafValues>
            6.7167425155639648e-01 -5.2927214652299881e-02</leafValues></_>
        <_>
          <internalNodes>
            0 -1 348 -4.7789025120437145e-04</internalNodes>
          <leafValues>
            2.4740226566791534e-01 -1.1940880864858627e-01</leafValues></_>
        <_>
          <internalNodes>
            0 -1 271 7.5542395934462547e-03</internalNodes>
          <leafValues>
            4.0685374289751053e-02 -7.9068106412887573e-01</leafValues></_>
        <_>
          <internalNodes>
            0 -1 36 1.3828577101230621e-01</internalNodes>
          <leafValues>
            3.4319970756769180e-02 -7.4545568227767944e-01</leafValues></_>
        <_>
          <internalNodes>
            0 -1 96 2.9294919967651367e-01</internalNodes>
          <leafValues>
            -6.7276418209075928e-02 4.8772928118705750e-01</leafValues></_>
        <_>
          <internalNodes>
            0 -1 120 -3.1298487447202206e-03</internalNodes>
          <leafValues>
            1.9554570317268372e-01 -1.6827739775180817e-01</leafValues></_>
        <_>
          <internalNodes>
            0 -1 8 4.2388704605400562e-03</internalNodes>
          <leafValues>
            5.6678324937820435e-02 -6.0489904880523682e-01</leafValues></_>
        <_>
          <internalNodes>
            0 -1 401 -3.7538548931479454e-03</internalNodes>
          <leafValues>
            -8.2742744684219360e-01 3.0293446034193039e-02</leafValues></_>
        <_>
          <internalNodes>
            0 -1 108 1.8650291021913290e-03</internalNodes>
          <leafValues>
            -1.1691822111606598e-01 2.7596789598464966e-01</leafValues></_>
        <_>
          <internalNodes>
            0 -1 34 1.0525422170758247e-02</internalNodes>
          <leafValues>
            -1.1005349457263947e-01 2.8278550505638123e-01</leafValues></_>
        <_>
          <internalNodes>
            0 -1 146 -3.2920531928539276e-02</internalNodes>
          <leafValues>
            7.3308426141738892e-01 -4.2339596897363663e-02</leafValues></_>
        <_>
          <internalNodes>
            0 -1 176 4.0868832729756832e-03</internalNodes>
          <leafValues>
            -1.2485490739345551e-01 2.6974180340766907e-01</leafValues></_>
        <_>
          <internalNodes>
            0 -1 139 -2.6790070114657283e-04</internalNodes>
          <leafValues>
            -2.0108577609062195e-01 1.5207673609256744e-01</leafValues></_>
        <_>
          <internalNodes>
            0 -1 160 -6.0287090018391609e-03</internalNodes>
          <leafValues>
            3.6433723568916321e-01 -9.2493399977684021e-02</leafValues></_>
        <_>
          <internalNodes>
            0 -1 244 1.7081083729863167e-02</internalNodes>
          <leafValues>
            5.2277475595474243e-02 -6.2063276767730713e-01</leafValues></_>
        <_>
          <internalNodes>
            0 -1 256 -7.3968162760138512e-03</internalNodes>
          <leafValues>
            2.8625735640525818e-01 -1.2686167657375336e-01</leafValues></_>
        <_>
          <internalNodes>
            0 -1 181 3.0658006668090820e-02</internalNodes>
          <leafValues>
            -1.2401362508535385e-01 2.7389588952064514e-01</leafValues></_>
        <_>
          <internalNodes>
            0 -1 397 5.1212322432547808e-05</internalNodes>
          <leafValues>
            -1.6399700939655304e-01 1.9589875638484955e-01</leafValues></_>
        <_>
          <internalNodes>
            0 -1 382 9.0551758185029030e-03</internalNodes>
          <leafValues>
            -1.1909309774637222e-01 2.6951155066490173e-01</leafValues></_></weakClassifiers></_>
    <!-- stage 6 -->
    <_>
      <maxWeakCount>76</maxWeakCount>
      <stageThreshold>-1.1975622177124023e+00</stageThreshold>
      <weakClassifiers>
        <_>
          <internalNodes>
            0 -1 135 -2.0379520952701569e-02</internalNodes>
          <leafValues>
            2.8571429848670959e-01 -6.5399241447448730e-01</leafValues></_>
        <_>
          <internalNodes>
            0 -1 87 -2.0013071596622467e-02</internalNodes>
          <leafValues>
            2.1335457265377045e-01 -2.4103350937366486e-01</leafValues></_>
        <_>
          <internalNodes>
            0 -1 33 -2.6206451654434204e-01</internalNodes>
          <leafValues>
            7.0980381965637207e-01 -5.4588031023740768e-02</leafValues></_>
        <_>
          <internalNodes>
            0 -1 415 1.8462113803252578e-04</internalNodes>
          <leafValues>
            1.1582393944263458e-01 -3.5685843229293823e-01</leafValues></_>
        <_>
          <internalNodes>
            0 -1 49 -1.0052765719592571e-03</internalNodes>
          <leafValues>
            -4.1008445620536804e-01 8.7012492120265961e-02</leafValues></_>
        <_>
          <internalNodes>
            0 -1 175 -2.7794316411018372e-02</internalNodes>
          <leafValues>
            2.9998189210891724e-01 -1.1610625684261322e-01</leafValues></_>
        <_>
          <internalNodes>
            0 -1 72 3.3609179081395268e-04</internalNodes>
          <leafValues>
            6.4522825181484222e-02 -4.8738181591033936e-01</leafValues></_>
        <_>
          <internalNodes>
            0 -1 24 -6.5351560711860657e-02</internalNodes>
          <leafValues>
            -7.6806557178497314e-01 6.5016150474548340e-02</leafValues></_>
        <_>
          <internalNodes>
            0 -1 197 -1.0449692606925964e-02</internalNodes>
          <leafValues>
            -5.2450144290924072e-01 4.1547242552042007e-02</leafValues></_>
        <_>
          <internalNodes>
            0 -1 260 1.5936869895085692e-03</internalNodes>
          <leafValues>
            -1.1331530660390854e-01 2.7264583110809326e-01</leafValues></_>
        <_>
          <internalNodes>
            0 -1 89 -1.8976749852299690e-02</internalNodes>
          <leafValues>
            -5.6894683837890625e-01 4.8585511744022369e-02</leafValues></_>
        <_>
          <internalNodes>
            0 -1 83 1.6625905409455299e-02</internalNodes>
          <leafValues>
            3.6149136722087860e-02 -7.6731789112091064e-01</leafValues></_>
        <_>
          <internalNodes>
            0 -1 259 2.2773727774620056e-02</internalNodes>
          <leafValues>
            3.2496444880962372e-02 -7.6070857048034668e-01</leafValues></_>
        <_>
          <internalNodes>
            0 -1 73 -4.6664901310577989e-04</internalNodes>
          <leafValues>
            -4.2250660061836243e-01 6.4583048224449158e-02</leafValues></_>
        <_>
          <internalNodes>
            0 -1 156 -4.2723603546619415e-02</internalNodes>
          <leafValues>
            5.0551068782806396e-01 -6.2102410942316055e-02</leafValues></_>
        <_>
          <internalNodes>
            0 -1 141 1.1634068563580513e-02</internalNodes>
          <leafValues>
            -6.4164422452449799e-02 4.7906297445297241e-01</leafValues></_>
        <_>
          <internalNodes>
            0 -1 267 3.0922018922865391e-03</internalNodes>
          <leafValues>
            -1.3359791040420532e-01 2.2135283052921295e-01</leafValues></_>
        <_>
          <internalNodes>
            0 -1 390 5.2781026170123369e-05</internalNodes>
          <leafValues>
            -1.5493567287921906e-01 1.9042526185512543e-01</leafValues></_>
        <_>
          <internalNodes>
            0 -1 234 -9.6257776021957397e-04</internalNodes>
          <leafValues>
            -2.5664174556732178e-01 1.0827363282442093e-01</leafValues></_>
        <_>
          <internalNodes>
            0 -1 355 -1.0586968809366226e-01</internalNodes>
          <leafValues>
            5.8313745260238647e-01 -5.3958494216203690e-02</leafValues></_>
        <_>
          <internalNodes>
            0 -1 163 4.3097678571939468e-03</internalNodes>
          <leafValues>
            -7.1705289185047150e-02 3.6523851752281189e-01</leafValues></_>
        <_>
          <internalNodes>
            0 -1 116 -1.4399005100131035e-02</internalNodes>
          <leafValues>
            -5.0290799140930176e-01 6.2728039920330048e-02</leafValues></_>
        <_>
          <internalNodes>
            0 -1 345 -3.8798503577709198e-02</internalNodes>
          <leafValues>
            2.0037262141704559e-01 -1.3829751312732697e-01</leafValues></_>
        <_>
          <internalNodes>
            0 -1 399 -3.7262239493429661e-03</internalNodes>
          <leafValues>
            2.0689645409584045e-01 -1.5130478143692017e-01</leafValues></_>
        <_>
          <internalNodes>
            0 -1 216 -1.0223616659641266e-01</internalNodes>
          <leafValues>
            3.9609095454216003e-01 -7.9103209078311920e-02</leafValues></_>
        <_>
          <internalNodes>
            0 -1 214 2.6131188496947289e-02</internalNodes>
          <leafValues>
            -1.1220142245292664e-01 2.5965794920921326e-01</leafValues></_>
        <_>
          <internalNodes>
            0 -1 266 1.1120690964162350e-02</internalNodes>
          <leafValues>
            -1.7398321628570557e-01 2.0023432374000549e-01</leafValues></_>
        <_>
          <internalNodes>
            0 -1 222 2.0842063240706921e-03</internalNodes>
          <leafValues>
            -1.4847977459430695e-01 1.9809070229530334e-01</leafValues></_>
        <_>
          <internalNodes>
            0 -1 287 -6.0052254411857575e-05</internalNodes>
          <leafValues>
            2.1427369117736816e-01 -1.5172462165355682e-01</leafValues></_>
        <_>
          <internalNodes>
            0 -1 61 5.8071808889508247e-03</internalNodes>
          <leafValues>
            6.5695546567440033e-02 -4.2721918225288391e-01</leafValues></_>
        <_>
          <internalNodes>
            0 -1 124 2.2878697142004967e-02</internalNodes>
          <leafValues>
            -6.2691830098628998e-02 4.8033770918846130e-01</leafValues></_>
        <_>
          <internalNodes>
            0 -1 174 -2.4365667253732681e-02</internalNodes>
          <leafValues>
            2.4520929157733917e-01 -1.1659461259841919e-01</leafValues></_>
        <_>
          <internalNodes>
            0 -1 254 -9.5554338768124580e-03</internalNodes>
          <leafValues>
            -9.3143141269683838e-01 3.5105943679809570e-02</leafValues></_>
        <_>
          <internalNodes>
            0 -1 344 -2.8087859973311424e-03</internalNodes>
          <leafValues>
            -5.2524197101593018e-01 4.3868854641914368e-02</leafValues></_>
        <_>
          <internalNodes>
            0 -1 373 4.8510759370401502e-05</internalNodes>
          <leafValues>
            -1.5015043318271637e-01 1.8996965885162354e-01</leafValues></_>
        <_>
          <internalNodes>
            0 -1 324 2.0072240382432938e-02</internalNodes>
          <leafValues>
            -1.5799607336521149e-01 2.0327894389629364e-01</leafValues></_>
        <_>
          <internalNodes>
            0 -1 111 -3.5214170813560486e-02</internalNodes>
          <leafValues>
            5.3425508737564087e-01 -5.3331859409809113e-02</leafValues></_>
        <_>
          <internalNodes>
            0 -1 321 -3.6029806360602379e-03</internalNodes>
          <leafValues>
            -9.0472990274429321e-01 3.3560428768396378e-02</leafValues></_>
        <_>
          <internalNodes>
            0 -1 27 1.5384276397526264e-02</internalNodes>
          <leafValues>
            3.2670993357896805e-02 -6.5550386905670166e-01</leafValues></_>
        <_>
          <internalNodes>
            0 -1 67 8.3820179104804993e-02</internalNodes>
          <leafValues>
            5.5373128503561020e-02 -4.4230031967163086e-01</leafValues></_>
        <_>
          <internalNodes>
            0 -1 241 -4.1201256681233644e-04</internalNodes>
          <leafValues>
            2.5455901026725769e-01 -1.0891170054674149e-01</leafValues></_>
        <_>
          <internalNodes>
            0 -1 82 1.1472414433956146e-01</internalNodes>
          <leafValues>
            -1.0072530806064606e-01 2.8048440814018250e-01</leafValues></_>
        <_>
          <internalNodes>
            0 -1 42 1.0834088921546936e-01</internalNodes>
          <leafValues>
            -8.6805440485477448e-02 4.2018824815750122e-01</leafValues></_>
        <_>
          <internalNodes>
            0 -1 356 1.0070583084598184e-03</internalNodes>
          <leafValues>
            -1.0966888815164566e-01 2.5738418102264404e-01</leafValues></_>
        <_>
          <internalNodes>
            0 -1 330 7.3449342744424939e-04</internalNodes>
          <leafValues>
            5.5630061775445938e-02 -5.5296152830123901e-01</leafValues></_>
        <_>
          <internalNodes>
            0 -1 68 -1.4621119480580091e-03</internalNodes>
          <leafValues>
            -6.2544447183609009e-01 3.8506973534822464e-02</leafValues></_>
        <_>
          <internalNodes>
            0 -1 122 4.6901300083845854e-04</internalNodes>
          <leafValues>
            -1.2263078242540359e-01 2.4523204565048218e-01</leafValues></_>
        <_>
          <internalNodes>
            0 -1 335 -3.4404084086418152e-02</internalNodes>
          <leafValues>
            5.4428482055664063e-01 -5.3636904805898666e-02</leafValues></_>
        <_>
          <internalNodes>
            0 -1 128 -1.4099027216434479e-01</internalNodes>
          <leafValues>
            3.0266854166984558e-01 -9.4373047351837158e-02</leafValues></_>
        <_>
          <internalNodes>
            0 -1 275 -5.2068054676055908e-02</internalNodes>
          <leafValues>
            -8.5828524827957153e-01 3.8085471838712692e-02</leafValues></_>
        <_>
          <internalNodes>
            0 -1 46 2.9628074844367802e-04</internalNodes>
          <leafValues>
            7.3974981904029846e-02 -3.4761789441108704e-01</leafValues></_>
        <_>
          <internalNodes>
            0 -1 229 1.3986724428832531e-02</internalNodes>
          <leafValues>
            -7.1097940206527710e-02 4.2379769682884216e-01</leafValues></_>
        <_>
          <internalNodes>
            0 -1 103 2.2680361289530993e-03</internalNodes>
          <leafValues>
            -9.4308473169803619e-02 2.7389049530029297e-01</leafValues></_>
        <_>
          <internalNodes>
            0 -1 100 3.0429763719439507e-03</internalNodes>
          <leafValues>
            -1.4439120888710022e-01 1.9761222600936890e-01</leafValues></_>
        <_>
          <internalNodes>
            0 -1 406 -3.3337733475491405e-04</internalNodes>
          <leafValues>
            -4.1960263252258301e-01 6.6773980855941772e-02</leafValues></_>
        <_>
          <internalNodes>
            0 -1 6 7.8653823584318161e-03</internalNodes>
          <leafValues>
            4.1204120963811874e-02 -5.8846116065979004e-01</leafValues></_>
        <_>
          <internalNodes>
            0 -1 329 9.0557029470801353e-03</internalNodes>
          <leafValues>
            -1.1170664429664612e-01 2.5029549002647400e-01</leafValues></_>
        <_>
          <internalNodes>
            0 -1 130 3.9966296404600143e-02</internalNodes>
          <leafValues>
            -3.6930739879608154e-02 6.4715749025344849e-01</leafValues></_>
        <_>
          <internalNodes>
            0 -1 21 -5.7561535388231277e-02</internalNodes>
          <leafValues>
            -3.0127629637718201e-01 1.0572201758623123e-01</leafValues></_>
        <_>
          <internalNodes>
            0 -1 121 6.6318926401436329e-03</internalNodes>
          <leafValues>
            -1.2099601328372955e-01 2.1343290805816650e-01</leafValues></_>
        <_>
          <internalNodes>
            0 -1 56 -8.9160710573196411e-02</internalNodes>
          <leafValues>
            3.2794761657714844e-01 -8.0377854406833649e-02</leafValues></_>
        <_>
          <internalNodes>
            0 -1 134 4.1225817985832691e-03</internalNodes>
          <leafValues>
            -1.3807113468647003e-01 2.2544039785861969e-01</leafValues></_>
        <_>
          <internalNodes>
            0 -1 131 -2.0624558627605438e-01</internalNodes>
          <leafValues>
            6.8546134233474731e-01 -4.3869871646165848e-02</leafValues></_>
        <_>
          <internalNodes>
            0 -1 365 2.6309501845389605e-03</internalNodes>
          <leafValues>
            -8.6241967976093292e-02 3.2757318019866943e-01</leafValues></_>
        <_>
          <internalNodes>
            0 -1 301 -2.1355447173118591e-01</internalNodes>
          <leafValues>
            -9.0561598539352417e-01 3.0593672767281532e-02</leafValues></_>
        <_>
          <internalNodes>
            0 -1 396 2.1131642279215157e-04</internalNodes>
          <leafValues>
            7.6743409037590027e-02 -3.1464183330535889e-01</leafValues></_>
        <_>
          <internalNodes>
            0 -1 104 9.5698507502675056e-03</internalNodes>
          <leafValues>
            -1.0323759913444519e-01 2.7491393685340881e-01</leafValues></_>
        <_>
          <internalNodes>
            0 -1 245 4.4756159186363220e-03</internalNodes>
          <leafValues>
            4.5987110584974289e-02 -5.7542681694030762e-01</leafValues></_>
        <_>
          <internalNodes>
            0 -1 194 2.1477205154951662e-04</internalNodes>
          <leafValues>
            6.4733296632766724e-02 -3.6123564839363098e-01</leafValues></_>
        <_>
          <internalNodes>
            0 -1 243 -3.3683367073535919e-02</internalNodes>
          <leafValues>
            3.0058547854423523e-01 -8.9760586619377136e-02</leafValues></_>
        <_>
          <internalNodes>
            0 -1 288 -8.6844399571418762e-02</internalNodes>
          <leafValues>
            -6.1809092760086060e-01 4.5254465192556381e-02</leafValues></_>
        <_>
          <internalNodes>
            0 -1 422 -3.1718920217826962e-04</internalNodes>
          <leafValues>
            -3.3258584141731262e-01 7.6137833297252655e-02</leafValues></_>
        <_>
          <internalNodes>
            0 -1 358 -1.8073935061693192e-02</internalNodes>
          <leafValues>
            8.2250314950942993e-01 -3.6232475191354752e-02</leafValues></_>
        <_>
          <internalNodes>
            0 -1 391 6.8344917963258922e-05</internalNodes>
          <leafValues>
            -1.8792276084423065e-01 1.5403650701045990e-01</leafValues></_>
        <_>
          <internalNodes>
            0 -1 269 -1.2892812083009630e-04</internalNodes>
          <leafValues>
            2.1918943524360657e-01 -1.2659946084022522e-01</leafValues></_>
        <_>
          <internalNodes>
            0 -1 233 5.0045116804540157e-03</internalNodes>
          <leafValues>
            -1.3449607789516449e-01 2.0567347109317780e-01</leafValues></_></weakClassifiers></_>
    <!-- stage 7 -->
    <_>
      <maxWeakCount>83</maxWeakCount>
      <stageThreshold>-1.2589300870895386e+00</stageThreshold>
      <weakClassifiers>
        <_>
          <internalNodes>
            0 -1 113 -5.3950577974319458e-02</internalNodes>
          <leafValues>
            3.4426230192184448e-01 -6.5214097499847412e-01</leafValues></_>
        <_>
          <internalNodes>
            0 -1 247 -2.2357282042503357e-01</internalNodes>
          <leafValues>
            3.3601230382919312e-01 -2.1885833144187927e-01</leafValues></_>
        <_>
          <internalNodes>
            0 -1 187 -1.3977655768394470e-01</internalNodes>
          <leafValues>
            -6.7983549833297729e-01 7.1923866868019104e-02</leafValues></_>
        <_>
          <internalNodes>
            0 -1 187 -1.3954842090606689e-01</internalNodes>
          <leafValues>
            9.8245161771774292e-01 -1.8101427704095840e-03</leafValues></_>
        <_>
          <internalNodes>
            0 -1 187 -1.3710770010948181e-01</internalNodes>
          <leafValues>
            -8.0590534210205078e-01 2.8578951023519039e-03</leafValues></_>
        <_>
          <internalNodes>
            0 -1 285 -9.2702647671103477e-03</internalNodes>
          <leafValues>
            -5.5322539806365967e-01 6.8095013499259949e-02</leafValues></_>
        <_>
          <internalNodes>
            0 -1 307 -2.9159847181290388e-03</internalNodes>
          <leafValues>
            -8.1982743740081787e-01 2.5448504835367203e-02</leafValues></_>
        <_>
          <internalNodes>
            0 -1 387 5.1960595883429050e-03</internalNodes>
          <leafValues>
            7.0197619497776031e-02 -4.6351838111877441e-01</leafValues></_>
        <_>
          <internalNodes>
            0 -1 299 -3.4191131591796875e-01</internalNodes>
          <leafValues>
            7.3469996452331543e-01 -4.1073832660913467e-02</leafValues></_>
        <_>
          <internalNodes>
            0 -1 123 -5.5707547289784998e-05</internalNodes>
          <leafValues>
            1.9125021994113922e-01 -1.4027202129364014e-01</leafValues></_>
        <_>
          <internalNodes>
            0 -1 402 1.8166098743677139e-04</internalNodes>
          <leafValues>
            1.0202645510435104e-01 -2.7190306782722473e-01</leafValues></_>
        <_>
          <internalNodes>
            0 -1 366 -4.3551148846745491e-03</internalNodes>
          <leafValues>
            2.2357958555221558e-01 -1.2555219233036041e-01</leafValues></_>
        <_>
          <internalNodes>
            0 -1 97 4.3037617579102516e-03</internalNodes>
          <leafValues>
            9.6130713820457458e-02 -2.9662498831748962e-01</leafValues></_>
        <_>
          <internalNodes>
            0 -1 322 2.2263821214437485e-02</internalNodes>
          <leafValues>
            8.3421863615512848e-02 -3.4917187690734863e-01</leafValues></_>
        <_>
          <internalNodes>
            0 -1 258 8.1626465544104576e-04</internalNodes>
          <leafValues>
            -1.0517524182796478e-01 2.7904570102691650e-01</leafValues></_>
        <_>
          <internalNodes>
            0 -1 63 -4.8338852822780609e-02</internalNodes>
          <leafValues>
            3.7426355481147766e-01 -7.4031077325344086e-02</leafValues></_>
        <_>
          <internalNodes>
            0 -1 384 1.7272583208978176e-03</internalNodes>
          <leafValues>
            -1.2981937825679779e-01 2.0670373737812042e-01</leafValues></_>
        <_>
          <internalNodes>
            0 -1 293 -2.5741308927536011e-02</internalNodes>
          <leafValues>
            4.3640020489692688e-01 -6.4812935888767242e-02</leafValues></_>
        <_>
          <internalNodes>
            0 -1 138 -9.3330182135105133e-03</internalNodes>
          <leafValues>
            2.2247953712940216e-01 -1.2565338611602783e-01</leafValues></_>
        <_>
          <internalNodes>
            0 -1 280 2.1940903388895094e-04</internalNodes>
          <leafValues>
            -1.5547536313533783e-01 1.7377211153507233e-01</leafValues></_>
        <_>
          <internalNodes>
            0 -1 50 -1.1413751170039177e-02</internalNodes>
          <leafValues>
            -5.4896831512451172e-01 5.1353480666875839e-02</leafValues></_>
        <_>
          <internalNodes>
            0 -1 109 4.7039273194968700e-03</internalNodes>
          <leafValues>
            -1.1052489280700684e-01 2.8680080175399780e-01</leafValues></_>
        <_>
          <internalNodes>
            0 -1 22 -3.7896466255187988e-01</internalNodes>
          <leafValues>
            3.5847458243370056e-01 -8.0126963555812836e-02</leafValues></_>
        <_>
          <internalNodes>
            0 -1 286 -1.4744582772254944e-01</internalNodes>
          <leafValues>
            3.2565140724182129e-01 -8.9798696339130402e-02</leafValues></_>
        <_>
          <internalNodes>
            0 -1 374 -4.5316736213862896e-03</internalNodes>
          <leafValues>
            1.8937692046165466e-01 -1.4802539348602295e-01</leafValues></_>
        <_>
          <internalNodes>
            0 -1 147 1.1181799694895744e-02</internalNodes>
          <leafValues>
            -1.3434305787086487e-01 2.4413210153579712e-01</leafValues></_>
        <_>
          <internalNodes>
            0 -1 196 -1.7748922109603882e-02</internalNodes>
          <leafValues>
            3.5331180691719055e-01 -1.1349595338106155e-01</leafValues></_>
        <_>
          <internalNodes>
            0 -1 362 7.7819265425205231e-02</internalNodes>
          <leafValues>
            -3.9758592844009399e-02 6.1524784564971924e-01</leafValues></_>
        <_>
          <internalNodes>
            0 -1 210 -3.5935796797275543e-02</internalNodes>
          <leafValues>
            7.3024678230285645e-01 -3.4667570143938065e-02</leafValues></_>
        <_>
          <internalNodes>
            0 -1 184 -4.9550767289474607e-04</internalNodes>
          <leafValues>
            3.0602401494979858e-01 -8.9317619800567627e-02</leafValues></_>
        <_>
          <internalNodes>
            0 -1 78 -3.4251518547534943e-02</internalNodes>
          <leafValues>
            -5.8955693244934082e-01 4.6513359993696213e-02</leafValues></_>
        <_>
          <internalNodes>
            0 -1 218 -2.0059898495674133e-02</internalNodes>
          <leafValues>
            2.9958406090736389e-01 -1.0348426550626755e-01</leafValues></_>
        <_>
          <internalNodes>
            0 -1 183 -1.3206799048930407e-03</internalNodes>
          <leafValues>
            3.2655531167984009e-01 -9.2391356825828552e-02</leafValues></_>
        <_>
          <internalNodes>
            0 -1 319 1.3072194531559944e-02</internalNodes>
          <leafValues>
            -5.0091721117496490e-02 5.9073549509048462e-01</leafValues></_>
        <_>
          <internalNodes>
            0 -1 289 -1.1373615264892578e-01</internalNodes>
          <leafValues>
            -6.1483228206634521e-01 5.4576687514781952e-02</leafValues></_>
        <_>
          <internalNodes>
            0 -1 296 -9.3326473142951727e-04</internalNodes>
          <leafValues>
            -2.4476592242717743e-01 1.3320538401603699e-01</leafValues></_>
        <_>
          <internalNodes>
            0 -1 79 -3.9471974596381187e-03</internalNodes>
          <leafValues>
            -2.9394927620887756e-01 1.0147498548030853e-01</leafValues></_>
        <_>
          <internalNodes>
            0 -1 272 1.7046889290213585e-02</internalNodes>
          <leafValues>
            4.8255864530801773e-02 -6.5928453207015991e-01</leafValues></_>
        <_>
          <internalNodes>
            0 -1 101 4.7773141413927078e-03</internalNodes>
          <leafValues>
            -9.7404785454273224e-02 3.5367852449417114e-01</leafValues></_>
        <_>
          <internalNodes>
            0 -1 334 3.9782676845788956e-02</internalNodes>
          <leafValues>
            -1.1122582852840424e-01 2.6314309239387512e-01</leafValues></_>
        <_>
          <internalNodes>
            0 -1 337 -1.0795923299156129e-04</internalNodes>
          <leafValues>
            2.1191392838954926e-01 -1.4746092259883881e-01</leafValues></_>
        <_>
          <internalNodes>
            0 -1 246 1.4948821067810059e-01</internalNodes>
          <leafValues>
            3.2791707664728165e-02 -9.0262502431869507e-01</leafValues></_>
        <_>
          <internalNodes>
            0 -1 249 8.9028868824243546e-03</internalNodes>
          <leafValues>
            -1.1983738839626312e-01 2.6883161067962646e-01</leafValues></_>
        <_>
          <internalNodes>
            0 -1 192 1.5409086830914021e-02</internalNodes>
          <leafValues>
            -6.2410261482000351e-02 4.4236326217651367e-01</leafValues></_>
        <_>
          <internalNodes>
            0 -1 136 5.4837495554238558e-05</internalNodes>
          <leafValues>
            -1.2632972002029419e-01 2.1208989620208740e-01</leafValues></_>
        <_>
          <internalNodes>
            0 -1 237 1.5182550996541977e-03</internalNodes>
          <leafValues>
            -1.3296212255954742e-01 2.0058663189411163e-01</leafValues></_>
        <_>
          <internalNodes>
            0 -1 71 -1.0127108544111252e-04</internalNodes>
          <leafValues>
            -1.7808742821216583e-01 1.6149388253688812e-01</leafValues></_>
        <_>
          <internalNodes>
            0 -1 394 2.1863220899831504e-04</internalNodes>
          <leafValues>
            -1.4992351830005646e-01 1.7990510165691376e-01</leafValues></_>
        <_>
          <internalNodes>
            0 -1 26 -3.4214337356388569e-03</internalNodes>
          <leafValues>
            1.3666504621505737e-01 -2.0004537701606750e-01</leafValues></_>
        <_>
          <internalNodes>
            0 -1 277 4.3426727643236518e-04</internalNodes>
          <leafValues>
            -1.2522082030773163e-01 2.2746442258358002e-01</leafValues></_>
        <_>
          <internalNodes>
            0 -1 195 2.4745967239141464e-02</internalNodes>
          <leafValues>
            3.2511670142412186e-02 -8.5547989606857300e-01</leafValues></_>
        <_>
          <internalNodes>
            0 -1 408 2.1407161839306355e-03</internalNodes>
          <leafValues>
            -1.6812264919281006e-01 1.6207663714885712e-01</leafValues></_>
        <_>
          <internalNodes>
            0 -1 411 2.9243309050798416e-02</internalNodes>
          <leafValues>
            4.1984736919403076e-02 -7.1614092588424683e-01</leafValues></_>
        <_>
          <internalNodes>
            0 -1 363 1.2721578241325915e-04</internalNodes>
          <leafValues>
            -1.4181081950664520e-01 2.0684643089771271e-01</leafValues></_>
        <_>
          <internalNodes>
            0 -1 277 -6.1004597228020430e-04</internalNodes>
          <leafValues>
            2.4360555410385132e-01 -1.1002661287784576e-01</leafValues></_>
        <_>
          <internalNodes>
            0 -1 106 -4.3888881802558899e-02</internalNodes>
          <leafValues>
            3.7206971645355225e-01 -7.2344452142715454e-02</leafValues></_>
        <_>
          <internalNodes>
            0 -1 318 4.9165606498718262e-02</internalNodes>
          <leafValues>
            4.8107068985700607e-02 -6.5384036302566528e-01</leafValues></_>
        <_>
          <internalNodes>
            0 -1 375 5.4071987979114056e-03</internalNodes>
          <leafValues>
            -7.2262935340404510e-02 4.5366248488426208e-01</leafValues></_>
        <_>
          <internalNodes>
            0 -1 276 -4.0168203413486481e-03</internalNodes>
          <leafValues>
            -2.2162039577960968e-01 1.2927775084972382e-01</leafValues></_>
        <_>
          <internalNodes>
            0 -1 361 3.4527028910815716e-03</internalNodes>
          <leafValues>
            -8.7951667606830597e-02 3.4776997566223145e-01</leafValues></_>
        <_>
          <internalNodes>
            0 -1 360 -1.8671171274036169e-03</internalNodes>
          <leafValues>
            -2.8729870915412903e-01 1.0985826700925827e-01</leafValues></_>
        <_>
          <internalNodes>
            0 -1 85 9.7212009131908417e-03</internalNodes>
          <leafValues>
            -1.2307627499103546e-01 2.7502951025962830e-01</leafValues></_>
        <_>
          <internalNodes>
            0 -1 91 -3.7468259688466787e-04</internalNodes>
          <leafValues>
            -3.2457390427589417e-01 9.3088530004024506e-02</leafValues></_>
        <_>
          <internalNodes>
            0 -1 110 -1.2067377567291260e-02</internalNodes>
          <leafValues>
            3.6509245634078979e-01 -7.9218685626983643e-02</leafValues></_>
        <_>
          <internalNodes>
            0 -1 47 -3.6703306250274181e-03</internalNodes>
          <leafValues>
            1.3492140173912048e-01 -2.4093838036060333e-01</leafValues></_>
        <_>
          <internalNodes>
            0 -1 93 -1.5950558008626103e-04</internalNodes>
          <leafValues>
            -2.7766060829162598e-01 1.0527180135250092e-01</leafValues></_>
        <_>
          <internalNodes>
            0 -1 398 6.7258763010613620e-05</internalNodes>
          <leafValues>
            -1.4123483002185822e-01 2.0084655284881592e-01</leafValues></_>
        <_>
          <internalNodes>
            0 -1 190 -3.3184774219989777e-02</internalNodes>
          <leafValues>
            -4.4812461733818054e-01 7.0437163114547729e-02</leafValues></_>
        <_>
          <internalNodes>
            0 -1 265 -2.8850767761468887e-02</internalNodes>
          <leafValues>
            3.2595971226692200e-01 -1.0554997622966766e-01</leafValues></_>
        <_>
          <internalNodes>
            0 -1 282 2.0378273911774158e-03</internalNodes>
          <leafValues>
            -1.7314502596855164e-01 1.9529095292091370e-01</leafValues></_>
        <_>
          <internalNodes>
            0 -1 274 1.0096476972103119e-01</internalNodes>
          <leafValues>
            -7.8475497663021088e-02 3.8912853598594666e-01</leafValues></_>
        <_>
          <internalNodes>
            0 -1 341 3.9533604867756367e-03</internalNodes>
          <leafValues>
            -1.5408602356910706e-01 2.0927083492279053e-01</leafValues></_>
        <_>
          <internalNodes>
            0 -1 270 1.4372184872627258e-01</internalNodes>
          <leafValues>
            4.0067691355943680e-02 -6.9404983520507813e-01</leafValues></_>
        <_>
          <internalNodes>
            0 -1 155 -5.3953800350427628e-02</internalNodes>
          <leafValues>
            2.7899914979934692e-01 -1.1036636680364609e-01</leafValues></_>
        <_>
          <internalNodes>
            0 -1 37 5.5893655371619388e-05</internalNodes>
          <leafValues>
            -1.4812940359115601e-01 2.0168331265449524e-01</leafValues></_>
        <_>
          <internalNodes>
            0 -1 148 2.3512702435255051e-02</internalNodes>
          <leafValues>
            7.6801910996437073e-02 -3.8069212436676025e-01</leafValues></_>
        <_>
          <internalNodes>
            0 -1 20 4.0004574693739414e-03</internalNodes>
          <leafValues>
            3.3524919301271439e-02 -7.9325717687606812e-01</leafValues></_>
        <_>
          <internalNodes>
            0 -1 143 -2.8640800155699253e-03</internalNodes>
          <leafValues>
            3.0932182073593140e-01 -1.0380898416042328e-01</leafValues></_>
        <_>
          <internalNodes>
            0 -1 279 -4.1745662689208984e-02</internalNodes>
          <leafValues>
            -4.4364592432975769e-01 7.0735447108745575e-02</leafValues></_>
        <_>
          <internalNodes>
            0 -1 179 4.3229986913502216e-03</internalNodes>
          <leafValues>
            -1.4828239381313324e-01 2.1295675635337830e-01</leafValues></_>
        <_>
          <internalNodes>
            0 -1 201 7.3542425525374711e-05</internalNodes>
          <leafValues>
            -1.3688156008720398e-01 2.1156428754329681e-01</leafValues></_>
        <_>
          <internalNodes>
            0 -1 350 7.5077312067151070e-04</internalNodes>
          <leafValues>
            8.7999381124973297e-02 -3.0977252125740051e-01</leafValues></_>
        <_>
          <internalNodes>
            0 -1 66 4.9925630446523428e-04</internalNodes>
          <leafValues>
            5.2108146250247955e-02 -4.9062669277191162e-01</leafValues></_></weakClassifiers></_></stages>
  <features>
    <_>
      <rects>
        <_>
          0 0 2 3 -1.</_>
        <_>
          1 0 1 3 2.</_></rects>
      <tilted>0</tilted></_>
    <_>
      <rects>
        <_>
          0 0 2 3 -1.</_>
        <_>
          0 1 2 1 3.</_></rects>
      <tilted>0</tilted></_>
    <_>
      <rects>
        <_>
          0 0 4 22 -1.</_>
        <_>
          0 0 2 11 2.</_>
        <_>
          2 11 2 11 2.</_></rects>
      <tilted>0</tilted></_>
    <_>
      <rects>
        <_>
          0 0 3 2 -1.</_>
        <_>
          0 1 3 1 2.</_></rects>
      <tilted>0</tilted></_>
    <_>
      <rects>
        <_>
          0 0 9 1 -1.</_>
        <_>
          3 0 3 1 3.</_></rects>
      <tilted>0</tilted></_>
    <_>
      <rects>
        <_>
          0 0 3 6 -1.</_>
        <_>
          0 2 3 2 3.</_></rects>
      <tilted>0</tilted></_>
    <_>
      <rects>
        <_>
          0 0 6 6 -1.</_>
        <_>
          0 0 3 3 2.</_>
        <_>
          3 3 3 3 2.</_></rects>
      <tilted>0</tilted></_>
    <_>
      <rects>
        <_>
          0 0 8 1 -1.</_>
        <_>
          4 0 4 1 2.</_></rects>
      <tilted>0</tilted></_>
    <_>
      <rects>
        <_>
          0 0 10 1 -1.</_>
        <_>
          5 0 5 1 2.</_></rects>
      <tilted>0</tilted></_>
    <_>
      <rects>
        <_>
          0 0 24 1 -1.</_>
        <_>
          8 0 8 1 3.</_></rects>
      <tilted>0</tilted></_>
    <_>
      <rects>
        <_>
          0 0 20 1 -1.</_>
        <_>
          10 0 10 1 2.</_></rects>
      <tilted>0</tilted></_>
    <_>
      <rects>
        <_>
          0 0 24 1 -1.</_>
        <_>
          12 0 12 1 2.</_></rects>
      <tilted>0</tilted></_>
    <_>
      <rects>
        <_>
          0 0 12 14 -1.</_>
        <_>
          0 7 12 7 2.</_></rects>
      <tilted>0</tilted></_>
    <_>
      <rects>
        <_>
          0 0 21 6 -1.</_>
        <_>
          0 3 21 3 2.</_></rects>
      <tilted>0</tilted></_>
    <_>
      <rects>
        <_>
          0 1 2 1 -1.</_>
        <_>
          1 1 1 1 2.</_></rects>
      <tilted>0</tilted></_>
    <_>
      <rects>
        <_>
          0 1 4 1 -1.</_>
        <_>
          2 1 2 1 2.</_></rects>
      <tilted>0</tilted></_>
    <_>
      <rects>
        <_>
          0 1 3 2 -1.</_>
        <_>
          0 2 3 1 2.</_></rects>
      <tilted>0</tilted></_>
    <_>
      <rects>
        <_>
          0 1 16 4 -1.</_>
        <_>
          8 1 8 4 2.</_></rects>
      <tilted>0</tilted></_>
    <_>
      <rects>
        <_>
          0 2 1 12 -1.</_>
        <_>
          0 6 1 4 3.</_></rects>
      <tilted>0</tilted></_>
    <_>
      <rects>
        <_>
          0 2 2 21 -1.</_>
        <_>
          1 2 1 21 2.</_></rects>
      <tilted>0</tilted></_>
    <_>
      <rects>
        <_>
          0 2 6 1 -1.</_>
        <_>
          3 2 3 1 2.</_></rects>
      <tilted>0</tilted></_>
    <_>
      <rects>
        <_>
          0 2 12 15 -1.</_>
        <_>
          4 2 4 15 3.</_></rects>
      <tilted>0</tilted></_>
    <_>
      <rects>
        <_>
          0 2 18 21 -1.</_>
        <_>
          6 2 6 21 3.</_></rects>
      <tilted>0</tilted></_>
    <_>
      <rects>
        <_>
          0 2 21 17 -1.</_>
        <_>
          7 2 7 17 3.</_></rects>
      <tilted>0</tilted></_>
    <_>
      <rects>
        <_>
          0 2 20 6 -1.</_>
        <_>
          0 2 10 3 2.</_>
        <_>
          10 5 10 3 2.</_></rects>
      <tilted>0</tilted></_>
    <_>
      <rects>
        <_>
          0 3 2 14 -1.</_>
        <_>
          0 10 2 7 2.</_></rects>
      <tilted>0</tilted></_>
    <_>
      <rects>
        <_>
          0 3 4 19 -1.</_>
        <_>
          2 3 2 19 2.</_></rects>
      <tilted>0</tilted></_>
    <_>
      <rects>
        <_>
          0 3 3 9 -1.</_>
        <_>
          0 6 3 3 3.</_></rects>
      <tilted>0</tilted></_>
    <_>
      <rects>
        <_>
          0 3 10 3 -1.</_>
        <_>
          5 3 5 3 2.</_></rects>
      <tilted>0</tilted></_>
    <_>
      <rects>
        <_>
          0 3 15 5 -1.</_>
        <_>
          5 3 5 5 3.</_></rects>
      <tilted>0</tilted></_>
    <_>
      <rects>
        <_>
          0 3 14 1 -1.</_>
        <_>
          7 3 7 1 2.</_></rects>
      <tilted>0</tilted></_>
    <_>
      <rects>
        <_>
          0 4 2 9 -1.</_>
        <_>
          0 7 2 3 3.</_></rects>
      <tilted>0</tilted></_>
    <_>
      <rects>
        <_>
          0 4 6 2 -1.</_>
        <_>
          3 4 3 2 2.</_></rects>
      <tilted>0</tilted></_>
    <_>
      <rects>
        <_>
          0 4 12 19 -1.</_>
        <_>
          4 4 4 19 3.</_></rects>
      <tilted>0</tilted></_>
    <_>
      <rects>
        <_>
          0 4 10 6 -1.</_>
        <_>
          0 6 10 2 3.</_></rects>
      <tilted>0</tilted></_>
    <_>
      <rects>
        <_>
          0 5 3 18 -1.</_>
        <_>
          0 14 3 9 2.</_></rects>
      <tilted>0</tilted></_>
    <_>
      <rects>
        <_>
          0 5 24 6 -1.</_>
        <_>
          8 5 8 6 3.</_></rects>
      <tilted>0</tilted></_>
    <_>
      <rects>
        <_>
          0 6 2 4 -1.</_>
        <_>
          0 6 1 2 2.</_>
        <_>
          1 8 1 2 2.</_></rects>
      <tilted>0</tilted></_>
    <_>
      <rects>
        <_>
          0 6 1 9 -1.</_>
        <_>
          0 9 1 3 3.</_></rects>
      <tilted>0</tilted></_>
    <_>
      <rects>
        <_>
          0 6 2 8 -1.</_>
        <_>
          0 6 1 4 2.</_>
        <_>
          1 10 1 4 2.</_></rects>
      <tilted>0</tilted></_>
    <_>
      <rects>
        <_>
          0 6 4 18 -1.</_>
        <_>
          2 6 2 18 2.</_></rects>
      <tilted>0</tilted></_>
    <_>
      <rects>
        <_>
          0 6 24 12 -1.</_>
        <_>
          8 6 8 12 3.</_></rects>
      <tilted>0</tilted></_>
    <_>
      <rects>
        <_>
          0 6 22 6 -1.</_>
        <_>
          11 6 11 6 2.</_></rects>
      <tilted>0</tilted></_>
    <_>
      <rects>
        <_>
          0 6 20 3 -1.</_>
        <_>
          0 7 20 1 3.</_></rects>
      <tilted>0</tilted></_>
    <_>
      <rects>
        <_>
          0 7 1 3 -1.</_>
        <_>
          0 8 1 1 3.</_></rects>
      <tilted>0</tilted></_>
    <_>
      <rects>
        <_>
          0 7 1 4 -1.</_>
        <_>
          0 9 1 2 2.</_></rects>
      <tilted>0</tilted></_>
    <_>
      <rects>
        <_>
          0 7 2 4 -1.</_>
        <_>
          0 7 1 2 2.</_>
        <_>
          1 9 1 2 2.</_></rects>
      <tilted>0</tilted></_>
    <_>
      <rects>
        <_>
          0 7 16 6 -1.</_>
        <_>
          0 10 16 3 2.</_></rects>
      <tilted>0</tilted></_>
    <_>
      <rects>
        <_>
          0 8 20 5 -1.</_>
        <_>
          10 8 10 5 2.</_></rects>
      <tilted>0</tilted></_>
    <_>
      <rects>
        <_>
          0 9 2 4 -1.</_>
        <_>
          1 9 1 4 2.</_></rects>
      <tilted>0</tilted></_>
    <_>
      <rects>
        <_>
          0 9 1 15 -1.</_>
        <_>
          0 14 1 5 3.</_></rects>
      <tilted>0</tilted></_>
    <_>
      <rects>
        <_>
          0 9 2 6 -1.</_>
        <_>
          0 11 2 2 3.</_></rects>
      <tilted>0</tilted></_>
    <_>
      <rects>
        <_>
          0 9 6 13 -1.</_>
        <_>
          3 9 3 13 2.</_></rects>
      <tilted>0</tilted></_>
    <_>
      <rects>
        <_>
          0 9 8 12 -1.</_>
        <_>
          0 9 4 6 2.</_>
        <_>
          4 15 4 6 2.</_></rects>
      <tilted>0</tilted></_>
    <_>
      <rects>
        <_>
          0 9 6 15 -1.</_>
        <_>
          0 14 6 5 3.</_></rects>
      <tilted>0</tilted></_>
    <_>
      <rects>
        <_>
          0 9 7 12 -1.</_>
        <_>
          0 13 7 4 3.</_></rects>
      <tilted>0</tilted></_>
    <_>
      <rects>
        <_>
          0 9 10 15 -1.</_>
        <_>
          0 14 10 5 3.</_></rects>
      <tilted>0</tilted></_>
    <_>
      <rects>
        <_>
          0 10 1 2 -1.</_>
        <_>
          0 11 1 1 2.</_></rects>
      <tilted>0</tilted></_>
    <_>
      <rects>
        <_>
          0 10 1 6 -1.</_>
        <_>
          0 12 1 2 3.</_></rects>
      <tilted>0</tilted></_>
    <_>
      <rects>
        <_>
          0 10 15 11 -1.</_>
        <_>
          5 10 5 11 3.</_></rects>
      <tilted>0</tilted></_>
    <_>
      <rects>
        <_>
          0 10 24 7 -1.</_>
        <_>
          8 10 8 7 3.</_></rects>
      <tilted>0</tilted></_>
    <_>
      <rects>
        <_>
          0 11 1 12 -1.</_>
        <_>
          0 15 1 4 3.</_></rects>
      <tilted>0</tilted></_>
    <_>
      <rects>
        <_>
          0 11 24 13 -1.</_>
        <_>
          12 11 12 13 2.</_></rects>
      <tilted>0</tilted></_>
    <_>
      <rects>
        <_>
          0 13 24 1 -1.</_>
        <_>
          8 13 8 1 3.</_></rects>
      <tilted>0</tilted></_>
    <_>
      <rects>
        <_>
          0 14 2 3 -1.</_>
        <_>
          0 15 2 1 3.</_></rects>
      <tilted>0</tilted></_>
    <_>
      <rects>
        <_>
          0 15 2 1 -1.</_>
        <_>
          1 15 1 1 2.</_></rects>
      <tilted>0</tilted></_>
    <_>
      <rects>
        <_>
          0 15 2 2 -1.</_>
        <_>
          0 15 1 1 2.</_>
        <_>
          1 16 1 1 2.</_></rects>
      <tilted>0</tilted></_>
    <_>
      <rects>
        <_>
          0 15 22 6 -1.</_>
        <_>
          11 15 11 6 2.</_></rects>
      <tilted>0</tilted></_>
    <_>
      <rects>
        <_>
          0 16 1 3 -1.</_>
        <_>
          0 17 1 1 3.</_></rects>
      <tilted>0</tilted></_>
    <_>
      <rects>
        <_>
          0 16 4 2 -1.</_>
        <_>
          2 16 2 2 2.</_></rects>
      <tilted>0</tilted></_>
    <_>
      <rects>
        <_>
          0 18 2 3 -1.</_>
        <_>
          1 18 1 3 2.</_></rects>
      <tilted>0</tilted></_>
    <_>
      <rects>
        <_>
          0 19 9 2 -1.</_>
        <_>
          3 19 3 2 3.</_></rects>
      <tilted>0</tilted></_>
    <_>
      <rects>
        <_>
          0 22 2 1 -1.</_>
        <_>
          1 22 1 1 2.</_></rects>
      <tilted>0</tilted></_>
    <_>
      <rects>
        <_>
          0 22 1 2 -1.</_>
        <_>
          0 23 1 1 2.</_></rects>
      <tilted>0</tilted></_>
    <_>
      <rects>
        <_>
          0 22 3 2 -1.</_>
        <_>
          1 22 1 2 3.</_></rects>
      <tilted>0</tilted></_>
    <_>
      <rects>
        <_>
          1 0 3 2 -1.</_>
        <_>
          2 0 1 2 3.</_></rects>
      <tilted>0</tilted></_>
    <_>
      <rects>
        <_>
          1 0 4 1 -1.</_>
        <_>
          3 0 2 1 2.</_></rects>
      <tilted>0</tilted></_>
    <_>
      <rects>
        <_>
          1 0 20 8 -1.</_>
        <_>
          1 4 20 4 2.</_></rects>
      <tilted>0</tilted></_>
    <_>
      <rects>
        <_>
          1 2 18 2 -1.</_>
        <_>
          10 2 9 2 2.</_></rects>
      <tilted>0</tilted></_>
    <_>
      <rects>
        <_>
          1 3 9 5 -1.</_>
        <_>
          4 3 3 5 3.</_></rects>
      <tilted>0</tilted></_>
    <_>
      <rects>
        <_>
          1 3 15 19 -1.</_>
        <_>
          6 3 5 19 3.</_></rects>
      <tilted>0</tilted></_>
    <_>
      <rects>
        <_>
          1 4 6 12 -1.</_>
        <_>
          1 4 3 6 2.</_>
        <_>
          4 10 3 6 2.</_></rects>
      <tilted>0</tilted></_>
    <_>
      <rects>
        <_>
          1 4 22 18 -1.</_>
        <_>
          1 4 11 9 2.</_>
        <_>
          12 13 11 9 2.</_></rects>
      <tilted>0</tilted></_>
    <_>
      <rects>
        <_>
          1 5 1 18 -1.</_>
        <_>
          1 11 1 6 3.</_></rects>
      <tilted>0</tilted></_>
    <_>
      <rects>
        <_>
          1 5 9 16 -1.</_>
        <_>
          4 5 3 16 3.</_></rects>
      <tilted>0</tilted></_>
    <_>
      <rects>
        <_>
          1 6 10 12 -1.</_>
        <_>
          6 6 5 12 2.</_></rects>
      <tilted>0</tilted></_>
    <_>
      <rects>
        <_>
          1 7 4 15 -1.</_>
        <_>
          3 7 2 15 2.</_></rects>
      <tilted>0</tilted></_>
    <_>
      <rects>
        <_>
          1 12 20 1 -1.</_>
        <_>
          11 12 10 1 2.</_></rects>
      <tilted>0</tilted></_>
    <_>
      <rects>
        <_>
          1 13 18 2 -1.</_>
        <_>
          7 13 6 2 3.</_></rects>
      <tilted>0</tilted></_>
    <_>
      <rects>
        <_>
          1 13 23 3 -1.</_>
        <_>
          1 14 23 1 3.</_></rects>
      <tilted>0</tilted></_>
    <_>
      <rects>
        <_>
          1 16 12 1 -1.</_>
        <_>
          5 16 4 1 3.</_></rects>
      <tilted>0</tilted></_>
    <_>
