<?xml version="1.0"?>
<opencv_storage>
<stage3>
  <maxWeakCount>53</maxWeakCount>
  <stageThreshold>-1.2832618951797485e+00</stageThreshold>
  <weakClassifiers>
    <_>
      <internalNodes>
        0 -1 99698 -3.4523665904998779e-01</internalNodes>
      <leafValues>
        8.6021505296230316e-02 -6.8257755041122437e-01</leafValues></_>
    <_>
      <internalNodes>
        0 -1 2628 -3.6853939294815063e-01</internalNodes>
      <leafValues>
        4.5807835459709167e-01 -2.7176016569137573e-01</leafValues></_>
    <_>
      <internalNodes>
        0 -1 37980 -3.6799599183723330e-04</internalNodes>
      <leafValues>
        -6.9207793474197388e-01 1.2330713868141174e-01</leafValues></_>
    <_>
      <internalNodes>
        0 -1 121506 3.3983651082962751e-03</internalNodes>
      <leafValues>
        9.0909212827682495e-02 -6.4067012071609497e-01</leafValues></_>
    <_>
      <internalNodes>
        0 -1 162099 -3.2803509384393692e-04</internalNodes>
      <leafValues>
        -6.2414336204528809e-01 1.0304236412048340e-01</leafValues></_>
    <_>
      <internalNodes>
        0 -1 144196 3.1114616431295872e-03</internalNodes>
      <leafValues>
        9.8501808941364288e-02 -5.6981158256530762e-01</leafValues></_>
    <_>
      <internalNodes>
        0 -1 151883 -2.2276020608842373e-03</internalNodes>
      <leafValues>
        -5.7169139385223389e-01 9.8194181919097900e-02</leafValues></_>
    <_>
      <internalNodes>
        0 -1 59109 -1.2920829653739929e-01</internalNodes>
      <leafValues>
        -6.3437592983245850e-01 7.6343238353729248e-02</leafValues></_>
    <_>
      <internalNodes>
        0 -1 59575 2.0827177911996841e-02</internalNodes>
      <leafValues>
        -1.9264079630374908e-01 3.0501931905746460e-01</leafValues></_>
    <_>
      <internalNodes>
        0 -1 25787 4.5116926776245236e-04</internalNodes>
      <leafValues>
        1.0756874829530716e-01 -5.2876394987106323e-01</leafValues></_>
    <_>
      <internalNodes>
        0 -1 82080 -2.2943649441003799e-02</internalNodes>
      <leafValues>
        2.3008431494235992e-01 -2.1090351045131683e-01</leafValues></_>
    <_>
      <internalNodes>
        0 -1 37980 -5.3453455620910972e-05</internalNodes>
      <leafValues>
        3.2252663373947144e-01 -1.5742112696170807e-01</leafValues></_>
    <_>
      <internalNodes>
        0 -1 3546 -1.8168725073337555e-02</internalNodes>
      <leafValues>
        -8.1306761503219604e-01 5.7192623615264893e-02</leafValues></_>
    <_>
      <internalNodes>
        0 -1 26668 -1.7414581961929798e-03</internalNodes>
      <leafValues>
        2.4689076840877533e-01 -1.9966283440589905e-01</leafValues></_>
    <_>
      <internalNodes>
        0 -1 155231 2.1887319162487984e-03</internalNodes>
      <leafValues>
        1.1614141613245010e-01 -4.2306759953498840e-01</leafValues></_>
    <_>
      <internalNodes>
        0 -1 8816 -1.7062865663319826e-03</internalNodes>
      <leafValues>
        -5.2305924892425537e-01 8.7424844503402710e-02</leafValues></_>
    <_>
      <internalNodes>
        0 -1 126397 8.6814984679222107e-03</internalNodes>
      <leafValues>
        -1.0108708590269089e-01 4.8745068907737732e-01</leafValues></_>
    <_>
      <internalNodes>
        0 -1 83 2.3612515069544315e-03</internalNodes>
      <leafValues>
        5.5101383477449417e-02 -8.8518279790878296e-01</leafValues></_>
    <_>
      <internalNodes>
        0 -1 42654 -4.4203802943229675e-02</internalNodes>
      <leafValues>
        2.7445861697196960e-01 -1.6865268349647522e-01</leafValues></_>
    <_>
      <internalNodes>
        0 -1 11484 1.0486801620572805e-03</internalNodes>
      <leafValues>
        5.5971685796976089e-02 -8.2762736082077026e-01</leafValues></_>
    <_>
      <internalNodes>
        0 -1 82497 -1.0833309497684240e-03</internalNodes>
      <leafValues>
        2.5212466716766357e-01 -1.7892523109912872e-01</leafValues></_>
    <_>
      <internalNodes>
        0 -1 25037 -1.4361196197569370e-02</internalNodes>
      <leafValues>
        5.9284675121307373e-01 -7.4228800833225250e-02</leafValues></_>
    <_>
      <internalNodes>
        0 -1 109981 5.3263604640960693e-02</internalNodes>
      <leafValues>
        4.9543716013431549e-02 -8.5764509439468384e-01</leafValues></_>
    <_>
      <internalNodes>
        0 -1 151884 5.7443794503342360e-05</internalNodes>
      <leafValues>
        -1.6712847352027893e-01 2.3489244282245636e-01</leafValues></_>
    <_>
      <internalNodes>
        0 -1 96787 -6.6680670715868473e-04</internalNodes>
      <leafValues>
        3.0689689517021179e-01 -1.2283522635698318e-01</leafValues></_>
    <_>
      <internalNodes>
        0 -1 75298 3.4293048083782196e-02</internalNodes>
      <leafValues>
        -1.1260557174682617e-01 3.7824875116348267e-01</leafValues></_>
    <_>
      <internalNodes>
        0 -1 86252 -1.7270042002201080e-01</internalNodes>
      <leafValues>
        4.6852660179138184e-01 -9.2793859541416168e-02</leafValues></_>
    <_>
      <internalNodes>
        0 -1 159267 2.4619139730930328e-04</internalNodes>
      <leafValues>
        -2.6533445715904236e-01 2.0311011373996735e-01</leafValues></_>
    <_>
      <internalNodes>
        0 -1 8809 5.0801719771698117e-04</internalNodes>
      <leafValues>
        7.4754394590854645e-02 -5.4163283109664917e-01</leafValues></_>
    <_>
      <internalNodes>
        0 -1 102262 2.4972954997792840e-04</internalNodes>
      <leafValues>
        -1.9723352789878845e-01 2.0587921142578125e-01</leafValues></_>
    <_>
      <internalNodes>
        0 -1 50136 6.3954040408134460e-02</internalNodes>
      <leafValues>
        5.6128058582544327e-02 -7.1501982212066650e-01</leafValues></_>
    <_>
      <internalNodes>
        0 -1 72754 7.2731939144432545e-03</internalNodes>
      <leafValues>
        -1.6852077841758728e-01 3.2882776856422424e-01</leafValues></_>
    <_>
      <internalNodes>
        0 -1 134080 1.7514102160930634e-02</internalNodes>
      <leafValues>
        -1.9355657696723938e-01 2.1973370015621185e-01</leafValues></_>
    <_>
      <internalNodes>
        0 -1 10 -1.0750012006610632e-03</internalNodes>
      <leafValues>
        -5.8012926578521729e-01 6.6683195531368256e-02</leafValues></_>
    <_>
      <internalNodes>
        0 -1 76832 -2.2600495722144842e-03</internalNodes>
      <leafValues>
        3.1437259912490845e-01 -1.3520580530166626e-01</leafValues></_>
    <_>
      <internalNodes>
        0 -1 120396 7.6256962493062019e-03</internalNodes>
      <leafValues>
        -8.7765984237194061e-02 4.6353062987327576e-01</leafValues></_>
    <_>
      <internalNodes>
        0 -1 1104 5.3454027511179447e-04</internalNodes>
      <leafValues>
        6.8479716777801514e-02 -6.5012973546981812e-01</leafValues></_>
    <_>
      <internalNodes>
        0 -1 74052 1.7727943137288094e-02</internalNodes>
      <leafValues>
        -1.4502243697643280e-01 3.4791335463523865e-01</leafValues></_>
    <_>
      <internalNodes>
        0 -1 138210 -7.8314007259905338e-04</internalNodes>
      <leafValues>
        2.0933002233505249e-01 -1.9336248934268951e-01</leafValues></_>
    <_>
      <internalNodes>
        0 -1 137572 -4.6775069087743759e-02</internalNodes>
      <leafValues>
        4.1633656620979309e-01 -1.1695412546396255e-01</leafValues></_>
    <_>
      <internalNodes>
        0 -1 89751 -6.6558071412146091e-03</internalNodes>
      <leafValues>
        3.2522219419479370e-01 -1.2800227105617523e-01</leafValues></_>
    <_>
      <internalNodes>
        0 -1 132104 -5.5420114658772945e-03</internalNodes>
      <leafValues>
        3.6379507184028625e-01 -1.1162193119525909e-01</leafValues></_>
    <_>
      <internalNodes>
        0 -1 35709 -4.9837511032819748e-02</internalNodes>
      <leafValues>
        4.7635263204574585e-01 -9.2044427990913391e-02</leafValues></_>
    <_>
      <internalNodes>
        0 -1 125818 1.2175453826785088e-02</internalNodes>
      <leafValues>
        -1.1165343970060349e-01 3.5747206211090088e-01</leafValues></_>
    <_>
      <internalNodes>
        0 -1 26191 6.6821821033954620e-02</internalNodes>
      <leafValues>
        -1.4640066027641296e-01 2.9702693223953247e-01</leafValues></_>
    <_>
      <internalNodes>
        0 -1 86906 4.6152539551258087e-02</internalNodes>
      <leafValues>
        -1.0661369562149048e-01 3.8982492685317993e-01</leafValues></_>
    <_>
      <internalNodes>
        0 -1 139107 6.9473842158913612e-03</internalNodes>
      <leafValues>
        -1.1724551767110825e-01 3.5499906539916992e-01</leafValues></_>
    <_>
      <internalNodes>
        0 -1 114494 5.5510350503027439e-03</internalNodes>
      <leafValues>
        4.8642367124557495e-02 -9.0492981672286987e-01</leafValues></_>
    <_>
      <internalNodes>
        0 -1 114367 3.9767898852005601e-04</internalNodes>
      <leafValues>
        1.2221761047840118e-01 -3.1374543905258179e-01</leafValues></_>
    <_>
      <internalNodes>
        0 -1 160692 5.3523661335930228e-05</internalNodes>
      <leafValues>
        -1.7152546346187592e-01 2.2005616128444672e-01</leafValues></_>
    <_>
      <internalNodes>
        0 -1 144036 -4.4319254811853170e-04</internalNodes>
      <leafValues>
        -5.4347157478332520e-01 7.0899650454521179e-02</leafValues></_>
    <_>
      <internalNodes>
        0 -1 75130 1.0635033249855042e-03</internalNodes>
      <leafValues>
        -1.8164493143558502e-01 2.2800284624099731e-01</leafValues></_>
    <_>
      <internalNodes>
        0 -1 133408 2.8156681219115853e-04</internalNodes>
      <leafValues>
        -1.9550834596157074e-01 1.9776841998100281e-01</leafValues></_></weakClassifiers></stage3>
</opencv_storage>
