<?xml version="1.0"?>
<opencv_storage>
<stage2>
  <maxWeakCount>39</maxWeakCount>
  <stageThreshold>-1.4760377407073975e+00</stageThreshold>
  <weakClassifiers>
    <_>
      <internalNodes>
        0 -1 35156 -1.1017344892024994e-01</internalNodes>
      <leafValues>
        1.6883116960525513e-01 -7.0433372259140015e-01</leafValues></_>
    <_>
      <internalNodes>
        0 -1 127506 -1.3601191341876984e-02</internalNodes>
      <leafValues>
        6.6086918115615845e-01 -2.5681459903717041e-01</leafValues></_>
    <_>
      <internalNodes>
        0 -1 808 1.0497782379388809e-02</internalNodes>
      <leafValues>
        1.4206631481647491e-01 -6.2650376558303833e-01</leafValues></_>
    <_>
      <internalNodes>
        0 -1 83407 -2.5547882542014122e-02</internalNodes>
      <leafValues>
        4.2269667983055115e-01 -1.9378353655338287e-01</leafValues></_>
    <_>
      <internalNodes>
        0 -1 61017 1.5137684345245361e-01</internalNodes>
      <leafValues>
        -1.0748761892318726e-01 6.2043726444244385e-01</leafValues></_>
    <_>
      <internalNodes>
        0 -1 65096 2.4241241626441479e-03</internalNodes>
      <leafValues>
        -2.5317004323005676e-01 3.1379175186157227e-01</leafValues></_>
    <_>
      <internalNodes>
        0 -1 141571 -2.8692135587334633e-02</internalNodes>
      <leafValues>
        3.8922125101089478e-01 -1.8826532363891602e-01</leafValues></_>
    <_>
      <internalNodes>
        0 -1 104742 -6.7435918026603758e-05</internalNodes>
      <leafValues>
        3.2867890596389771e-01 -1.9762085378170013e-01</leafValues></_>
    <_>
      <internalNodes>
        0 -1 4159 1.3140346854925156e-02</internalNodes>
      <leafValues>
        5.9591412544250488e-02 -9.0061855316162109e-01</leafValues></_>
    <_>
      <internalNodes>
        0 -1 36660 -1.4400098472833633e-02</internalNodes>
      <leafValues>
        7.6385056972503662e-01 -9.3456350266933441e-02</leafValues></_>
    <_>
      <internalNodes>
        0 -1 67778 1.2607838958501816e-02</internalNodes>
      <leafValues>
        -1.4927129447460175e-01 4.2696934938430786e-01</leafValues></_>
    <_>
      <internalNodes>
        0 -1 37954 4.4582281261682510e-03</internalNodes>
      <leafValues>
        -1.7608685791492462e-01 3.7009465694427490e-01</leafValues></_>
    <_>
      <internalNodes>
        0 -1 133146 4.6841930598020554e-03</internalNodes>
      <leafValues>
        -1.4649114012718201e-01 4.4298985600471497e-01</leafValues></_>
    <_>
      <internalNodes>
        0 -1 240 3.1642336398363113e-03</internalNodes>
      <leafValues>
        9.2634588479995728e-02 -7.2782284021377563e-01</leafValues></_>
    <_>
      <internalNodes>
        0 -1 147055 -9.9113918840885162e-03</internalNodes>
      <leafValues>
        5.8511161804199219e-01 -1.1677443236112595e-01</leafValues></_>
    <_>
      <internalNodes>
        0 -1 147421 6.4412038773298264e-04</internalNodes>
      <leafValues>
        -2.0672845840454102e-01 2.7350053191184998e-01</leafValues></_>
    <_>
      <internalNodes>
        0 -1 9031 -2.0989263057708740e-01</internalNodes>
      <leafValues>
        7.6483505964279175e-01 -7.8979790210723877e-02</leafValues></_>
    <_>
      <internalNodes>
        0 -1 3232 2.0895268768072128e-02</internalNodes>
      <leafValues>
        9.0123735368251801e-02 -8.1910270452499390e-01</leafValues></_>
    <_>
      <internalNodes>
        0 -1 59769 7.3696919716894627e-03</internalNodes>
      <leafValues>
        -1.6791456937789917e-01 3.7508007884025574e-01</leafValues></_>
    <_>
      <internalNodes>
        0 -1 106001 -2.6747267693281174e-02</internalNodes>
      <leafValues>
        3.2250067591667175e-01 -1.8935891985893250e-01</leafValues></_>
    <_>
      <internalNodes>
        0 -1 696 -9.4835450872778893e-03</internalNodes>
      <leafValues>
        -5.5078434944152832e-01 1.1974784731864929e-01</leafValues></_>
    <_>
      <internalNodes>
        0 -1 3430 3.0247613787651062e-02</internalNodes>
      <leafValues>
        -1.5613602101802826e-01 4.1625607013702393e-01</leafValues></_>
    <_>
      <internalNodes>
        0 -1 3418 -2.8022989863529801e-04</internalNodes>
      <leafValues>
        2.0776087045669556e-01 -2.8822231292724609e-01</leafValues></_>
    <_>
      <internalNodes>
        0 -1 123158 -1.5681910514831543e-01</internalNodes>
      <leafValues>
        8.7640041112899780e-01 -7.0661105215549469e-02</leafValues></_>
    <_>
      <internalNodes>
        0 -1 161183 -3.9935106178745627e-04</internalNodes>
      <leafValues>
        -4.8724535107612610e-01 1.2849234044551849e-01</leafValues></_>
    <_>
      <internalNodes>
        0 -1 161177 -5.0870970881078392e-05</internalNodes>
      <leafValues>
        2.6970595121383667e-01 -2.1326988935470581e-01</leafValues></_>
    <_>
      <internalNodes>
        0 -1 157680 -5.1169749349355698e-04</internalNodes>
      <leafValues>
        -4.5212361216545105e-01 1.2750226259231567e-01</leafValues></_>
    <_>
      <internalNodes>
        0 -1 86742 -1.9321039319038391e-02</internalNodes>
      <leafValues>
        7.1060186624526978e-01 -8.6934208869934082e-02</leafValues></_>
    <_>
      <internalNodes>
        0 -1 87155 2.5625568814575672e-03</internalNodes>
      <leafValues>
        -1.2899813055992126e-01 4.4875243306159973e-01</leafValues></_>
    <_>
      <internalNodes>
        0 -1 123902 -5.8929529041051865e-04</internalNodes>
      <leafValues>
        3.1526932120323181e-01 -1.8555738031864166e-01</leafValues></_>
    <_>
      <internalNodes>
        0 -1 128037 7.4025665526278317e-05</internalNodes>
      <leafValues>
        -2.4192009866237640e-01 2.3470610380172729e-01</leafValues></_>
    <_>
      <internalNodes>
        0 -1 162246 -5.3172756452113390e-04</internalNodes>
      <leafValues>
        -4.9040517210960388e-01 1.1080165952444077e-01</leafValues></_>
    <_>
      <internalNodes>
        0 -1 151066 4.8210071399807930e-03</internalNodes>
      <leafValues>
        -2.0004642009735107e-01 3.2356917858123779e-01</leafValues></_>
    <_>
      <internalNodes>
        0 -1 17336 -6.2886201776564121e-03</internalNodes>
      <leafValues>
        3.0834022164344788e-01 -1.9420082867145538e-01</leafValues></_>
    <_>
      <internalNodes>
        0 -1 162121 5.1437527872622013e-05</internalNodes>
      <leafValues>
        -2.2263239324092865e-01 2.5032261013984680e-01</leafValues></_>
    <_>
      <internalNodes>
        0 -1 162121 9.0838957112282515e-04</internalNodes>
      <leafValues>
        9.9457748234272003e-02 -6.5917265415191650e-01</leafValues></_>
    <_>
      <internalNodes>
        0 -1 106350 1.8586538732051849e-02</internalNodes>
      <leafValues>
        -1.7068964242935181e-01 3.5151541233062744e-01</leafValues></_>
    <_>
      <internalNodes>
        0 -1 9887 2.7193665504455566e-01</internalNodes>
      <leafValues>
        7.1206480264663696e-02 -8.3183711767196655e-01</leafValues></_>
    <_>
      <internalNodes>
        0 -1 80499 5.6931036524474621e-03</internalNodes>
      <leafValues>
        -1.9822157919406891e-01 3.0170989036560059e-01</leafValues></_></weakClassifiers></stage2>
</opencv_storage>
