<?xml version="1.0"?>
<opencv_storage>
<stage1>
  <maxWeakCount>35</maxWeakCount>
  <stageThreshold>-1.6175196170806885e+00</stageThreshold>
  <weakClassifiers>
    <_>
      <internalNodes>
        0 -1 35161 -1.3941664993762970e-01</internalNodes>
      <leafValues>
        5.9203982353210449e-01 -6.3318049907684326e-01</leafValues></_>
    <_>
      <internalNodes>
        0 -1 38854 -2.0910315215587616e-02</internalNodes>
      <leafValues>
        2.3746795952320099e-01 -4.9563947319984436e-01</leafValues></_>
    <_>
      <internalNodes>
        0 -1 162178 -3.9474787190556526e-03</internalNodes>
      <leafValues>
        -6.5892034769058228e-01 1.2335696071386337e-01</leafValues></_>
    <_>
      <internalNodes>
        0 -1 2146 -3.0479414854198694e-03</internalNodes>
      <leafValues>
        -5.1046997308731079e-01 1.7407387495040894e-01</leafValues></_>
    <_>
      <internalNodes>
        0 -1 8 -2.5880276225507259e-03</internalNodes>
      <leafValues>
        -7.1605587005615234e-01 1.1932548135519028e-01</leafValues></_>
    <_>
      <internalNodes>
        0 -1 21644 -4.1038817726075649e-03</internalNodes>
      <leafValues>
        2.8736132383346558e-01 -3.0561035871505737e-01</leafValues></_>
    <_>
      <internalNodes>
        0 -1 161184 -4.6762567944824696e-04</internalNodes>
      <leafValues>
        -7.8751790523529053e-01 1.0597684234380722e-01</leafValues></_>
    <_>
      <internalNodes>
        0 -1 132565 -1.9472171552479267e-03</internalNodes>
      <leafValues>
        4.5118486881256104e-01 -1.9604656100273132e-01</leafValues></_>
    <_>
      <internalNodes>
        0 -1 74958 1.1029995977878571e-02</internalNodes>
      <leafValues>
        -2.2149232029914856e-01 3.8279706239700317e-01</leafValues></_>
    <_>
      <internalNodes>
        0 -1 4992 3.5503739491105080e-03</internalNodes>
      <leafValues>
        9.5510840415954590e-02 -8.2679349184036255e-01</leafValues></_>
    <_>
      <internalNodes>
        0 -1 808 -1.1613516137003899e-02</internalNodes>
      <leafValues>
        -5.8944803476333618e-01 1.2367710471153259e-01</leafValues></_>
    <_>
      <internalNodes>
        0 -1 808 1.0464342311024666e-02</internalNodes>
      <leafValues>
        1.3969817757606506e-01 -5.9812277555465698e-01</leafValues></_>
    <_>
      <internalNodes>
        0 -1 113333 7.6403841376304626e-04</internalNodes>
      <leafValues>
        -1.8396168947219849e-01 4.0505069494247437e-01</leafValues></_>
    <_>
      <internalNodes>
        0 -1 161629 4.2491718195378780e-03</internalNodes>
      <leafValues>
        1.3337540626525879e-01 -5.5838292837142944e-01</leafValues></_>
    <_>
      <internalNodes>
        0 -1 126286 3.2034732401371002e-02</internalNodes>
      <leafValues>
        -2.5302445888519287e-01 2.4360673129558563e-01</leafValues></_>
    <_>
      <internalNodes>
        0 -1 47562 -5.5289536714553833e-02</internalNodes>
      <leafValues>
        8.1953299045562744e-01 -7.7880598604679108e-02</leafValues></_>
    <_>
      <internalNodes>
        0 -1 69611 2.5633403565734625e-03</internalNodes>
      <leafValues>
        -1.8706554174423218e-01 3.5701560974121094e-01</leafValues></_>
    <_>
      <internalNodes>
        0 -1 123043 1.2607673183083534e-02</internalNodes>
      <leafValues>
        -1.9481644034385681e-01 3.8372293114662170e-01</leafValues></_>
    <_>
      <internalNodes>
        0 -1 85411 9.7300428897142410e-03</internalNodes>
      <leafValues>
        -2.5041675567626953e-01 2.7468100190162659e-01</leafValues></_>
    <_>
      <internalNodes>
        0 -1 162055 -1.2665917165577412e-03</internalNodes>
      <leafValues>
        -5.5712467432022095e-01 1.3016869127750397e-01</leafValues></_>
    <_>
      <internalNodes>
        0 -1 122093 2.9363507404923439e-02</internalNodes>
      <leafValues>
        -1.5589785575866699e-01 4.8842042684555054e-01</leafValues></_>
    <_>
      <internalNodes>
        0 -1 82 -1.7461987445130944e-03</internalNodes>
      <leafValues>
        -7.0216739177703857e-01 1.0076195001602173e-01</leafValues></_>
    <_>
      <internalNodes>
        0 -1 7249 3.7765306234359741e-01</internalNodes>
      <leafValues>
        5.4703373461961746e-02 -9.6683996915817261e-01</leafValues></_>
    <_>
      <internalNodes>
        0 -1 3160 1.2502446770668030e-02</internalNodes>
      <leafValues>
        6.7501053214073181e-02 -7.0868676900863647e-01</leafValues></_>
    <_>
      <internalNodes>
        0 -1 36156 -1.7099851369857788e-01</internalNodes>
      <leafValues>
        -7.8678470849990845e-01 7.4259012937545776e-02</leafValues></_>
    <_>
      <internalNodes>
        0 -1 79968 9.1859046369791031e-03</internalNodes>
      <leafValues>
        -2.3184704780578613e-01 3.0292937159538269e-01</leafValues></_>
    <_>
      <internalNodes>
        0 -1 132081 -2.4666758254170418e-03</internalNodes>
      <leafValues>
        3.9886745810508728e-01 -1.7407022416591644e-01</leafValues></_>
    <_>
      <internalNodes>
        0 -1 71973 -1.5775378048419952e-01</internalNodes>
      <leafValues>
        5.1224219799041748e-01 -1.4016251266002655e-01</leafValues></_>
    <_>
      <internalNodes>
        0 -1 77379 7.8851114958524704e-03</internalNodes>
      <leafValues>
        -1.4542205631732941e-01 4.7050210833549500e-01</leafValues></_>
    <_>
      <internalNodes>
        0 -1 55612 -7.6917624101042747e-03</internalNodes>
      <leafValues>
        4.4700852036476135e-01 -1.4258328080177307e-01</leafValues></_>
    <_>
      <internalNodes>
        0 -1 8848 3.0763833783566952e-03</internalNodes>
      <leafValues>
        1.0114298015832901e-01 -6.8393611907958984e-01</leafValues></_>
    <_>
      <internalNodes>
        0 -1 26286 1.3364364393055439e-02</internalNodes>
      <leafValues>
        8.0408789217472076e-02 -6.6910529136657715e-01</leafValues></_>
    <_>
      <internalNodes>
        0 -1 6690 9.7802150994539261e-03</internalNodes>
      <leafValues>
        9.4686821103096008e-02 -5.9409320354461670e-01</leafValues></_>
    <_>
      <internalNodes>
        0 -1 69927 -3.2074809074401855e-02</internalNodes>
      <leafValues>
        4.4145587086677551e-01 -1.4353244006633759e-01</leafValues></_>
    <_>
      <internalNodes>
        0 -1 162121 9.1405335115268826e-04</internalNodes>
      <leafValues>
        1.0362126678228378e-01 -6.2441891431808472e-01</leafValues></_></weakClassifiers></stage1>
</opencv_storage>
