<?xml version="1.0"?>
<opencv_storage>
<stage4>
  <maxWeakCount>55</maxWeakCount>
  <stageThreshold>-1.2895697355270386e+00</stageThreshold>
  <weakClassifiers>
    <_>
      <internalNodes>
        0 -1 4446 -2.1720498800277710e-01</internalNodes>
      <leafValues>
        3.5294118523597717e-01 -5.8766233921051025e-01</leafValues></_>
    <_>
      <internalNodes>
        0 -1 31596 -1.2022474408149719e-01</internalNodes>
      <leafValues>
        4.1631987690925598e-01 -2.4837617576122284e-01</leafValues></_>
    <_>
      <internalNodes>
        0 -1 148382 1.6279607079923153e-03</internalNodes>
      <leafValues>
        1.1432556807994843e-01 -5.4050427675247192e-01</leafValues></_>
    <_>
      <internalNodes>
        0 -1 39687 -1.9020099192857742e-02</internalNodes>
      <leafValues>
        1.9390648603439331e-01 -2.8262564539909363e-01</leafValues></_>
    <_>
      <internalNodes>
        0 -1 128280 -2.5173937901854515e-03</internalNodes>
      <leafValues>
        -4.8054897785186768e-01 1.3159418106079102e-01</leafValues></_>
    <_>
      <internalNodes>
        0 -1 57756 5.8429576456546783e-03</internalNodes>
      <leafValues>
        -1.1950488388538361e-01 3.5201388597488403e-01</leafValues></_>
    <_>
      <internalNodes>
        0 -1 13372 2.6560417609289289e-04</internalNodes>
      <leafValues>
        8.6437001824378967e-02 -5.1459085941314697e-01</leafValues></_>
    <_>
      <internalNodes>
        0 -1 6065 -1.8831057846546173e-01</internalNodes>
      <leafValues>
        6.8604093790054321e-01 -6.5628483891487122e-02</leafValues></_>
    <_>
      <internalNodes>
        0 -1 66073 7.4550095014274120e-03</internalNodes>
      <leafValues>
        -1.4572300016880035e-01 3.1188303232192993e-01</leafValues></_>
    <_>
      <internalNodes>
        0 -1 4093 6.9474726915359497e-03</internalNodes>
      <leafValues>
        5.8448690921068192e-02 -8.5624641180038452e-01</leafValues></_>
    <_>
      <internalNodes>
        0 -1 60420 4.5625277562066913e-04</internalNodes>
      <leafValues>
        7.2698526084423065e-02 -5.2784639596939087e-01</leafValues></_>
    <_>
      <internalNodes>
        0 -1 122170 -1.7432400584220886e-01</internalNodes>
      <leafValues>
        8.4964436292648315e-01 -5.6999064981937408e-02</leafValues></_>
    <_>
      <internalNodes>
        0 -1 32881 -6.3440561294555664e-02</internalNodes>
      <leafValues>
        3.8552603125572205e-01 -1.0278310626745224e-01</leafValues></_>
    <_>
      <internalNodes>
        0 -1 85799 8.7573695927858353e-03</internalNodes>
      <leafValues>
        -1.2787470221519470e-01 3.6139631271362305e-01</leafValues></_>
    <_>
      <internalNodes>
        0 -1 162220 1.3560669030994177e-03</internalNodes>
      <leafValues>
        6.1721485108137131e-02 -6.6733914613723755e-01</leafValues></_>
    <_>
      <internalNodes>
        0 -1 89739 2.8227409347891808e-03</internalNodes>
      <leafValues>
        -1.5793734788894653e-01 2.7642026543617249e-01</leafValues></_>
    <_>
      <internalNodes>
        0 -1 91106 -2.3061640560626984e-02</internalNodes>
      <leafValues>
        2.1294015645980835e-01 -1.9910407066345215e-01</leafValues></_>
    <_>
      <internalNodes>
        0 -1 11485 -4.7977425856515765e-04</internalNodes>
      <leafValues>
        -5.1784139871597290e-01 8.9271314442157745e-02</leafValues></_>
    <_>
      <internalNodes>
        0 -1 162099 -5.2871787920594215e-04</internalNodes>
      <leafValues>
        -5.8020097017288208e-01 6.2380414456129074e-02</leafValues></_>
    <_>
      <internalNodes>
        0 -1 67253 8.7052453309297562e-03</internalNodes>
      <leafValues>
        -9.5364183187484741e-02 4.3100246787071228e-01</leafValues></_>
    <_>
      <internalNodes>
        0 -1 55712 -4.2191590182483196e-03</internalNodes>
      <leafValues>
        2.2635705769062042e-01 -2.0584575831890106e-01</leafValues></_>
    <_>
      <internalNodes>
        0 -1 151883 -2.2399891167879105e-03</internalNodes>
      <leafValues>
        -5.0839114189147949e-01 8.2550629973411560e-02</leafValues></_>
    <_>
      <internalNodes>
        0 -1 139174 1.4643296599388123e-03</internalNodes>
      <leafValues>
        -1.9693657755851746e-01 2.2278924286365509e-01</leafValues></_>
    <_>
      <internalNodes>
        0 -1 14440 2.8352939989417791e-03</internalNodes>
      <leafValues>
        5.7020232081413269e-02 -6.4360707998275757e-01</leafValues></_>
    <_>
      <internalNodes>
        0 -1 105923 6.2675620429217815e-03</internalNodes>
      <leafValues>
        -1.4748094975948334e-01 2.7307787537574768e-01</leafValues></_>
    <_>
      <internalNodes>
        0 -1 162325 -6.7973951809108257e-04</internalNodes>
      <leafValues>
        -3.0779701471328735e-01 1.2408950924873352e-01</leafValues></_>
    <_>
      <internalNodes>
        0 -1 158 -2.1391743794083595e-03</internalNodes>
      <leafValues>
        1.5771314501762390e-01 -2.5522464513778687e-01</leafValues></_>
    <_>
      <internalNodes>
        0 -1 67249 -1.3354277471080422e-03</internalNodes>
      <leafValues>
        3.0530962347984314e-01 -1.2984925508499146e-01</leafValues></_>
    <_>
      <internalNodes>
        0 -1 131870 -1.9916426390409470e-02</internalNodes>
      <leafValues>
        4.2081877589225769e-01 -9.3305841088294983e-02</leafValues></_>
    <_>
      <internalNodes>
        0 -1 133004 2.7299707289785147e-03</internalNodes>
      <leafValues>
        -1.6539792716503143e-01 2.3441040515899658e-01</leafValues></_>
    <_>
      <internalNodes>
        0 -1 153165 -5.0704157911241055e-03</internalNodes>
      <leafValues>
        2.5161451101303101e-01 -1.7493493854999542e-01</leafValues></_>
    <_>
      <internalNodes>
        0 -1 150619 9.2920269817113876e-03</internalNodes>
      <leafValues>
        -1.5667867660522461e-01 2.7151143550872803e-01</leafValues></_>
    <_>
      <internalNodes>
        0 -1 38142 -2.2923187352716923e-03</internalNodes>
      <leafValues>
        -4.3042713403701782e-01 8.7455466389656067e-02</leafValues></_>
    <_>
      <internalNodes>
        0 -1 72957 1.6921723727136850e-03</internalNodes>
      <leafValues>
        -1.2237104773521423e-01 3.1100177764892578e-01</leafValues></_>
    <_>
      <internalNodes>
        0 -1 161542 -1.5374838840216398e-03</internalNodes>
      <leafValues>
        -5.6196361780166626e-01 7.0023864507675171e-02</leafValues></_>
    <_>
      <internalNodes>
        0 -1 107026 6.5424159169197083e-02</internalNodes>
      <leafValues>
        -9.1628156602382660e-02 4.5033195614814758e-01</leafValues></_>
    <_>
      <internalNodes>
        0 -1 150925 -3.7964005023241043e-02</internalNodes>
      <leafValues>
        5.5647325515747070e-01 -7.0528887212276459e-02</leafValues></_>
    <_>
      <internalNodes>
        0 -1 116000 -1.7427280545234680e-02</internalNodes>
      <leafValues>
        3.1194907426834106e-01 -1.2285522371530533e-01</leafValues></_>
    <_>
      <internalNodes>
        0 -1 71006 4.3488670140504837e-02</internalNodes>
      <leafValues>
        -1.1419609934091568e-01 3.4517711400985718e-01</leafValues></_>
    <_>
      <internalNodes>
        0 -1 161183 -3.5653804661706090e-04</internalNodes>
      <leafValues>
        -4.3558993935585022e-01 8.4921672940254211e-02</leafValues></_>
    <_>
      <internalNodes>
        0 -1 83352 1.2471666187047958e-01</internalNodes>
      <leafValues>
        6.1432972550392151e-02 -5.5383211374282837e-01</leafValues></_>
    <_>
      <internalNodes>
        0 -1 36523 -2.8914764523506165e-02</internalNodes>
      <leafValues>
        2.4279651045799255e-01 -1.5245719254016876e-01</leafValues></_>
    <_>
      <internalNodes>
        0 -1 14417 6.2552111921831965e-04</internalNodes>
      <leafValues>
        6.0776568949222565e-02 -5.6689751148223877e-01</leafValues></_>
    <_>
      <internalNodes>
        0 -1 122557 -5.8984255883842707e-04</internalNodes>
      <leafValues>
        2.4180383980274200e-01 -1.4895503222942352e-01</leafValues></_>
    <_>
      <internalNodes>
        0 -1 118985 -7.9886594903655350e-05</internalNodes>
      <leafValues>
        1.7483484745025635e-01 -2.0392543077468872e-01</leafValues></_>
    <_>
      <internalNodes>
        0 -1 160825 -1.1912507470697165e-03</internalNodes>
      <leafValues>
        -4.9104180932044983e-01 7.4475355446338654e-02</leafValues></_>
    <_>
      <internalNodes>
        0 -1 8266 -6.7767626605927944e-03</internalNodes>
      <leafValues>
        2.7321684360504150e-01 -1.5235166251659393e-01</leafValues></_>
    <_>
      <internalNodes>
        0 -1 19654 6.9733075797557831e-03</internalNodes>
      <leafValues>
        -1.2007632106542587e-01 3.0572545528411865e-01</leafValues></_>
    <_>
      <internalNodes>
        0 -1 143383 1.3046585954725742e-03</internalNodes>
      <leafValues>
        -1.1326868832111359e-01 3.2475373148918152e-01</leafValues></_>
    <_>
      <internalNodes>
        0 -1 143521 6.1997799202799797e-03</internalNodes>
      <leafValues>
        -6.9959931075572968e-02 5.3970426321029663e-01</leafValues></_>
    <_>
      <internalNodes>
        0 -1 13298 -5.6282698642462492e-04</internalNodes>
      <leafValues>
        -4.8964273929595947e-01 8.1676416099071503e-02</leafValues></_>
    <_>
      <internalNodes>
        0 -1 45571 -2.7068285271525383e-03</internalNodes>
      <leafValues>
        2.3131094872951508e-01 -1.5657381713390350e-01</leafValues></_>
    <_>
      <internalNodes>
        0 -1 92030 1.5251024160534143e-03</internalNodes>
      <leafValues>
        -1.2007246911525726e-01 3.0097383260726929e-01</leafValues></_>
    <_>
      <internalNodes>
        0 -1 143419 -7.0854835212230682e-03</internalNodes>
      <leafValues>
        3.0022329092025757e-01 -1.2463909387588501e-01</leafValues></_>
    <_>
      <internalNodes>
        0 -1 104027 -2.6789959520101547e-03</internalNodes>
      <leafValues>
        3.2274082303047180e-01 -1.1654699593782425e-01</leafValues></_></weakClassifiers></stage4>
</opencv_storage>
